986 64
161 0.20993635 -0.06401098 0.21623491 0.36915427 -0.0026940024 -0.22013941 0.090281695 0.04461862 -0.17114416 -0.053789716 0.25589108 -0.20057878 -0.011360501 -0.1989912 -0.16410792 0.19789624 -0.16391623 -0.067112215 -0.07199797 -0.069591485 0.20399974 0.393266 0.12299833 -0.36261433 0.23542629 -0.045471024 -0.24674061 -0.37264758 0.2855658 -0.36084142 0.0023417803 -0.058718447 -0.045276303 -0.35383534 -0.27121106 -0.08323703 0.29468203 -0.090956755 0.111911096 -0.07737764 -0.347798 0.32606673 -0.2158405 -0.060079336 0.15505792 -0.12863111 -0.027795928 -0.20159645 0.338118 -0.050555166 -0.0073698233 -0.22860219 -0.096485935 0.22248836 0.024071025 -0.024161767 0.2646098 -0.18776554 -0.3054522 0.116042234 0.07020212 -0.056294587 -0.029740408 -0.07027429
63 0.031904615 0.0019260506 0.056272503 0.09507953 0.24849197 -0.5030885 0.22460902 0.22381087 -0.11365089 0.07137821 0.27078927 -0.0054182797 -0.23632972 -0.22357742 0.059389815 0.03487882 -0.33984703 0.030344175 -0.045856554 -0.17028822 0.05826675 0.55770063 0.14463198 -0.38697028 0.2139359 0.45807236 -0.3287418 -0.36433548 0.011308168 -0.4573361 -0.009661405 0.14019069 -0.088082895 -0.4261382 -0.14385079 0.07529522 0.05510722 0.0016064725 -0.15550147 -0.14861666 0.26358083 0.18552896 -0.029440135 -0.171028 0.15422353 -0.23765762 0.11124378 -0.27677518 0.0048015937 0.015008354 0.20796543 -0.11062263 0.25119567 0.10546307 0.13016987 0.0801059 0.05721415 -0.16038586 -0.008208062 0.013233679 -0.040817127 -0.065853365 0.19192028 0.103879385
87 0.037278634 -0.27299792 0.1189705 -0.04423488 -0.017245956 -0.17543161 0.33904648 -0.15721045 -0.037689626 0.53935516 0.4154194 0.1519196 -0.09215088 -0.111396216 -0.3490087 0.18904664 -0.110036135 -0.29443568 0.056588996 0.2457387 0.11173801 0.3174002 0.35229167 -0.508062 0.054680835 0.100569226 0.12113894 -0.25439322 0.056907155 -0.069582224 -0.09776249 -0.1109773 -0.15471853 -0.049806442 -0.1275381 0.12409629 0.25235626 -0.15439436 -0.037603106 -0.17202826 0.20932502 0.23418209 -0.16483241 -0.08602718 0.3366149 0.08524876 -0.3919815 -0.6267462 0.24296975 0.10699726 0.5418785 0.029872717 0.1279346 0.121884 0.18021789 -0.19306158 -0.06061744 -0.1563234 -0.28389978 -0.20439833 0.0150191905 -0.13025689 0.01399395 0.1998898
108 0.21334913 0.1516381 0.07821255 -0.022225242 0.21764562 -0.36136174 0.042521294 0.118948124 -0.09828907 0.27524328 0.07387288 -0.23585312 -0.16043258 -0.17456022 -0.2198896 0.2108688 -0.29653496 0.031002782 -0.22092813 -0.14927445 0.21452783 0.5596944 0.11223157 -0.2730465 0.046797708 0.39245224 -0.35308984 -0.1874747 -0.14200042 -0.47128037 0.08589708 -0.09565829 -0.20983814 -0.015841432 -0.3916321 -0.085536316 0.09872396 0.059603956 0.14982088 -0.4596221 0.14248592 0.03370778 -0.023583071 -0.1389371 0.13795407 -0.104134366 0.23580194 -0.12824924 -0.052738037 -0.019554777 0.16515209 -0.110374734 0.18648802 0.19661316 -0.042671558 0.15252693 0.18213604 -0.19690542 -0.08779277 0.041717123 -0.23679665 -0.13642673 0.04072751 -0.079861656
122 0.09944154 -0.021334723 0.23482476 0.070192486 0.11839517 -0.33985156 -0.004268202 -0.08857151 -0.23731725 0.24142279 0.20273729 -0.010238166 -0.049301896 0.050815172 -0.040510394 0.16439696 -0.43704817 -0.20894864 0.21115898 0.29274517 0.24001735 0.3936915 0.41211048 -0.29056937 0.12824136 0.35534042 -0.275324 0.045158625 0.035093013 -0.431808 0.22557744 -0.281254 0.05665457 -0.0078058336 -0.21364613 0.019649105 0.06914195 -0.13058364 0.15491769 -0.015847156 -0.15195145 0.003277006 0.08023881 -0.14554386 0.051959597 -0.053347956 0.095361255 0.06812475 -0.2601735 -0.081478946 0.11933601 0.07927391 0.028622909 0.20223844 0.15392141 0.106968604 0.10824472 -0.0987578 -0.12566178 0.11336887 -0.03383056 -0.21079409 0.33439288 -0.045826126
184 0.29670486 -0.28476274 0.4273873 0.25493482 -0.019557059 -0.21024816 -0.042530473 -0.2016984 -0.3234742 -0.19426475 0.12412261 -0.064222425 -0.24903071 -0.1956023 0.20991917 0.29754716 -0.29102254 -0.011956534 -0.31694278 0.1781453 0.104936324 0.10587387 0.33843413 0.0639727 0.11129144 0.3620356 -0.35153323 -0.09476191 0.22298259 0.09941717 -0.05488131 -0.09318146 -0.39721093 -0.41564685 -0.10638178 -0.16886035 0.018349454 -0.30182415 0.06262805 -0.34188437 -0.06942555 -0.28027713 0.21541534 -0.2197603 0.41147423 -0.05398005 0.1092076 -0.2425147 -0.08954506 -0.0040078685 0.31997454 0.0070562814 0.037980467 0.36806035 -0.18070361 -0.0033091407 -0.09360239 0.034749668 -0.14085932 -0.027729614 -0.22528897 -0.3270847 -0.04059511 0.062126968
433 0.31912756 0.101656705 0.1503301 0.20849225 0.19779249 -0.36805916 -0.037018567 0.047487948 -0.30886924 0.09892413 0.38039544 -0.12727427 -0.35516295 -0.23484138 -0.0750709 0.19818114 -0.089850746 -0.0082032 -0.3186512 0.13783166 0.35194156 0.11135352 0.24169658 -0.4880797 0.14964125 0.35072696 -0.26680714 -0.017527577 -0.2689622 -0.12121488 0.0381192 -0.14324749 -0.15573667 -0.077740446 0.073187694 -0.19212027 -0.031650178 -0.16886097 0.28616706 -0.03426032 -0.0752805 0.2313126 -0.05146368 -0.07341657 0.25133157 -0.0037089593 0.05792468 -0.06920623 -0.1772095 0.06644007 -0.049927764 -0.23788053 0.098202534 -0.06425444 -0.0113934195 0.11027288 -0.049409974 -0.11876662 -0.21917439 0.08511142 -0.14179245 -0.07897496 0.24265385 -0.025062129
130 0.10916062 -0.8379299 0.38066724 0.5001939 -0.001656894 -0.17073192 -0.21476452 -0.11124231 -0.54947543 0.15653338 0.11915932 -0.14110015 -0.15262309 -0.35475618 0.010468055 0.15730526 -0.2560222 0.030935708 -0.14030541 0.30862993 -0.13172404 0.15890363 0.18618326 -0.24422367 0.073883526 0.16729687 -0.056200836 0.09903954 0.07221246 -0.13896835 0.11304773 -0.1823155 -0.27024636 -0.09525223 -0.10533578 -0.1714554 0.06758913 -0.074623175 0.05165019 0.16161676 -0.013754861 -0.0920099 -0.21881016 -0.07212406 0.06481796 -0.22272801 0.1879971 -0.3743732 -0.05330556 -0.08540614 0.004476011 -0.008122301 0.21118079 0.27533147 -0.15929806 -0.158565 -0.26120728 0.21691516 -0.1249007 0.10657622 -0.17282546 -0.26860297 0.014711318 0.14305136
129 0.111751206 -0.5004717 0.32040927 0.4766877 -0.059081398 -0.237971 0.01767253 -0.09941492 -0.3241124 0.21017194 0.29352716 -0.3627511 -0.029378813 -0.18394725 0.29103184 0.43544102 -0.35696694 -0.3529927 -0.16957371 0.1504546 0.27594748 -0.062443223 0.19530219 -0.036129285 0.14127564 0.3872564 0.041789398 -0.33714405 0.047932137 0.037892308 -0.03486922 -0.14439072 -0.30109674 -0.035498053 0.08163061 0.15843791 0.040385075 -0.20322137 0.077968016 -0.41614696 -0.040679857 -0.111953124 0.19682348 0.17319964 0.23133998 -0.14261122 0.40618262 -0.31579968 -0.087998174 -0.06969675 -0.09252194 -0.17048427 0.0027067384 0.06365852 0.36659443 0.055154838 0.21643008 0.0019174578 -0.10814482 0.13521999 -0.5097473 0.10085539 -0.059258495 0.24954481
65 0.084117204 -0.10390013 0.20214207 0.040949594 0.3831347 -0.3008539 0.032896865 -0.39943188 0.16573815 -0.1912316 0.29152358 -0.01567511 -0.35063723 -0.007613621 -0.1516673 0.73503476 -0.5494486 0.016945515 0.024324134 -0.08636453 0.016884735 0.091753975 -0.028100342 -0.66337353 0.11041144 0.15916166 0.23482841 -0.29268366 0.10539533 -0.08934245 0.036124825 -0.1356429 -0.22770454 -0.030609256 -0.059660718 -0.27784005 0.36503908 0.38482377 -0.17171808 -0.0689194 0.10952868 0.07177918 -0.01353571 0.21618162 0.104187705 0.11672864 0.15876788 -0.009525364 -0.28665623 0.030691171 0.20505612 0.042129718 -0.14727232 0.08141172 0.05494535 0.12133213 -0.027460506 -0.069712594 -0.19828846 -0.3084987 -0.39946693 0.06807 0.25883248 0.051417146
6 0.02569023 0.18134604 0.46350917 0.18758646 0.08349094 -0.10314088 -0.42328414 -0.2064365 0.098379605 0.032595847 0.09581908 0.26783952 -0.0041298815 -0.33272007 0.0008905483 0.39019167 -0.35897818 0.035371207 -0.07883205 -0.16415545 -0.14866523 0.18019958 0.45098224 -0.6013331 0.026304783 0.2702465 -0.06448186 -0.5414564 -0.22886445 -0.110079885 0.05746782 -0.20101248 0.004285419 0.21938248 -0.017690627 -0.08691755 0.24702336 -0.24514821 -0.0475068 -0.0683119 0.113910094 -0.12528221 -0.053500667 0.27998778 0.4423321 -0.13483767 -0.06214399 -0.51954156 0.1857144 -0.09520005 0.061209768 -0.050677236 -0.3251639 0.074306116 -0.21554376 0.39400715 0.095144264 0.028083017 -0.8073423 -0.34206572 -0.25074372 0.2842209 0.11436417 0.36819762
167 0.37303013 0.017715165 0.002395853 0.30407563 0.0099569755 -0.21976452 -0.15922745 -0.28651986 -0.008838614 0.033214655 0.17259298 -0.17923205 -0.36737216 -0.11651942 -0.23449586 0.25335646 -0.03861041 -0.04364129 0.088219546 0.13302046 0.11900066 0.43510258 0.24744879 -0.2476709 0.29523417 -0.04564595 -0.08108858 -0.017479837 0.023067428 -0.5392883 -0.22662069 -0.19198029 -0.46818578 0.08881371 -0.430641 0.1737298 0.33296916 -0.026155995 -0.12204734 -0.09133533 0.26677805 0.02354432 -0.19503851 -0.03269319 0.46995437 -0.22558922 -0.21379067 -0.21879467 -0.19514585 0.004017434 0.011972102 0.30669898 0.12754864 -0.039885793 0.1588256 -0.010772223 0.27385977 -0.112076454 -0.12578413 0.05130697 0.12447551 -0.15104088 0.14349759 -0.07955338
107 -0.049006063 -0.16627198 -0.11179406 -0.21254526 0.17629294 -0.39024246 0.08362724 0.20574856 -0.124418184 -0.025421735 0.19936143 -0.28307196 -0.10232485 -0.27525303 0.09114469 0.48213091 -0.17511068 -0.04225593 0.01636804 0.45042378 0.20954071 0.15886149 0.25626963 -0.31667227 0.054928664 0.3900866 -0.29579893 -0.019155351 -0.043990493 -0.16385014 0.06053787 -0.13429935 -0.3099263 0.28535676 0.09051209 0.04775222 0.08019659 -0.29703045 0.48078316 -0.08477057 -0.005439003 0.14942795 0.18183427 0.044605106 0.5966146 -0.119001225 0.5689759 -0.2150952 0.29254356 0.32716018 0.030915158 -0.14068909 -0.068015665 0.3129061 0.09536836 0.018759523 0.22865412 0.06719835 -0.19968843 -0.0037712795 0.017635446 -0.1472095 0.45403853 -0.18979873
298 0.27504984 0.36722854 0.30667308 0.5036106 0.000611539 0.023098378 0.16658068 -0.3339604 -0.02852797 0.07692677 0.2665181 -0.2526365 -0.36777076 -0.4147106 0.28873405 0.23667578 -0.14060526 -0.12371495 -0.26047993 -0.12827097 0.39891076 0.25223055 0.22004019 -0.39635456 0.01632963 0.18299018 -0.049472414 -0.17266892 0.002656078 -0.27053368 0.5307554 -0.13422734 0.16769025 -0.16014867 -0.3972956 0.24323758 -0.19212444 0.035653092 -0.25996158 0.02234128 0.036087837 0.3789629 -0.21500164 -0.24125741 -0.120134875 -0.3992541 0.15208086 -0.608367 -0.09286931 0.10512262 0.31344956 -0.027060697 -0.40576515 0.54543334 -0.19711214 -0.28025547 0.044921298 0.1768962 -0.052187704 -0.13869388 0.10319725 0.12871043 0.37541884 0.2698842
106 0.25299722 -0.059872374 0.35216752 -0.38264814 0.07722885 -0.5728093 -0.08994616 -0.012994669 -0.103291824 0.19005054 0.092678145 -0.2712684 -0.34782058 -0.10430267 -0.12634012 0.117023565 -0.06818428 -0.06650333 -0.17556751 0.31099805 0.5207281 0.5786285 0.43495303 -0.3131076 -0.123116255 0.31876573 0.17971785 0.023539761 0.15393454 -0.2847701 0.05579574 0.13188827 0.095126934 0.006542785 -0.33171114 0.018930009 0.027443875 -0.038050503 0.0996879 -0.078793906 -0.36681643 0.07237247 0.16824661 0.022944443 0.2311129 0.04233807 0.2607264 -0.14879963 0.029946202 0.1631962 -0.12282875 -0.16302079 0.06380035 0.006745397 0.25335798 0.32536146 -0.096009955 -0.1615715 -0.25372455 0.106117114 -0.12772699 -0.010684277 0.08145503 -0.23786683
83 -0.0023139515 -0.17482613 0.35537013 0.23533587 -0.046610247 -0.43183342 0.04814393 0.062468488 -0.024759607 0.17110059 0.19350725 -0.042405378 -0.19818084 -0.14578576 -0.11076942 0.14655063 -0.41287807 0.05527739 0.07280785 0.19547574 0.051372655 0.44466475 0.28568274 -0.067202635 0.11152896 0.32853496 -0.14637403 -0.22947253 0.22982296 -0.47947052 -0.070529625 0.0515909 0.014296821 -0.14375906 -0.25548315 -0.054950487 -0.13069445 0.027392982 0.07514132 -0.22708172 -0.112350225 0.03656977 -0.11234133 -0.42202377 0.15494195 -0.03145241 0.17492914 -0.26360932 -0.06403262 0.089943804 0.1300408 -0.09188541 0.1021426 0.16062737 0.42312318 -0.018324284 0.02727999 -0.21528429 -0.25030094 0.14614794 -0.009145665 -0.2536936 0.29361856 -0.003189489
22 0.15853596 0.055671204 0.24846853 0.029624393 0.17526233 -0.24238333 -0.13686897 0.09303818 -0.11593349 0.31483647 0.36918455 -0.30290845 -0.03524703 -0.14905262 -0.1491365 0.56698847 -0.21104789 0.04164584 -0.45164979 0.50161546 -0.013812753 0.29630527 0.29012161 -0.50862277 0.2195493 0.3964259 -0.43053508 0.06766478 0.016971678 0.23158552 0.4160214 -0.13617513 -0.12983385 0.49222603 -0.34600946 0.15468048 -0.023848448 0.18949622 0.16477785 0.028729538 -0.15241784 -0.08767174 0.07917792 0.10398188 0.22360228 -0.12785275 0.22614244 0.043239806 0.26397014 0.25484708 -0.019070065 -0.09174045 -0.00908919 0.46055433 0.14890124 -0.1928639 0.106106356 0.28222454 0.14490199 0.32516775 -0.27453136 -0.2865081 -0.15689725 0.26344678
210 0.03924865 -0.2035139 0.27322167 0.48674563 0.046546515 -0.030901631 -0.2530886 -0.06794846 -0.13162641 -0.34709185 0.39437842 -0.29956764 -0.10880117 0.16295153 0.08443396 0.025787966 -0.4137223 -0.04770981 0.21399252 0.1643086 0.23429179 0.47813866 0.35484558 -0.35371277 -0.2394067 -0.09512653 -0.41169387 -0.07753898 0.08381469 0.099642865 -0.0914135 -0.090437286 -0.1602463 -0.0046033273 -0.57954323 -0.29466015 -0.015583923 -0.25677523 0.10081994 0.09245826 0.37431896 -0.23446725 -0.0602463 -0.08173367 0.19933197 -0.019664103 0.47148496 -0.31007496 0.1765847 0.11598463 0.107307926 0.09490446 -0.10362158 0.21388939 -0.10514694 0.11170769 -9.211072e-05 -0.1809349 0.00594317 0.23701075 -0.013799273 0.21371818 -0.04096226 0.012782228
279 0.088148676 -0.29476383 0.14034288 0.018719964 0.10962917 0.0027718525 0.10310422 -0.0031711755 -0.08614854 0.2906667 0.19821312 -0.32285553 -0.111762166 0.0024612364 0.04962756 0.37880445 -0.25106797 -0.19355825 0.10667553 0.29606646 0.25719923 0.08971379 0.3491593 -0.01851623 0.2640977 0.031276543 -0.23849344 -0.048741676 -0.13365577 -0.45030773 -0.062365804 0.2621563 -0.2909807 0.28227076 -0.39022362 -0.23829773 0.25453037 0.045303363 0.018671721 -0.12649707 0.0077151987 0.0024033028 0.06897869 -0.12995745 0.0707667 -0.011221604 0.06721953 -0.37783545 -0.031036472 0.25918102 0.23124558 -0.05096146 0.20210391 0.14762482 0.11312469 -0.07361722 0.117230065 -0.34109548 -0.36906052 0.40756252 -0.22243996 0.13367942 0.60920644 -0.353146
256 0.2840974 -0.24631391 0.3914376 0.13506767 0.09638566 -0.3444787 0.08314785 0.13280658 -0.28457353 0.23778705 0.25679076 -0.14907356 -0.11285964 0.2437886 0.31657287 0.42826906 -0.20470846 -0.16718909 -0.034304395 0.29955983 -0.10972881 0.119312115 0.3907735 -0.10702371 -0.107324675 0.44727072 -0.31503415 0.01912657 0.08543329 -0.34644693 0.20033842 -0.24518122 -0.17330223 -0.03386668 -0.28669074 -0.234493 -0.00971079 -0.119333565 0.111331254 -0.29152834 0.24913915 0.104396634 -0.16689637 -0.034890655 0.033980343 0.17945471 0.014345164 -0.13806033 -0.11916391 0.25795415 0.024116032 -0.10672157 -0.24786934 0.45722017 0.03340823 0.49153912 -0.13223368 -0.19097924 -0.17161101 -0.13496852 -0.07242347 -0.04755291 0.35786104 -0.10777978
330 0.020489905 -0.14925362 -0.084664755 0.23884423 -0.82852876 -0.43507698 -0.11038212 -0.015275492 -0.16543803 -0.055916328 0.10574649 0.010112816 -0.11433748 -0.60988945 0.28111225 0.15897302 -0.0652213 0.28575236 -0.15293762 0.16654441 -0.23819378 0.2628435 0.27161852 -0.43746907 -0.086624525 0.074830495 -0.1378997 -0.114993475 -0.07936263 -0.36596826 0.18467212 0.105376504 -0.31720126 -0.0045260172 -0.1659921 -0.3720614 0.47959477 -0.08167835 -0.22128567 -0.07060009 0.13410619 -0.10809807 0.0052134953 -0.118490405 0.5392562 0.20926827 -0.30934986 -0.49945536 -0.29807064 0.2762949 0.10814622 0.28350553 0.24005719 -0.17093427 0.07283265 0.14243105 0.122441635 -0.32416672 -0.21279 -0.02162826 -0.30603683 0.14607376 0.3644732 0.13213308
88 0.0056503643 -0.14796367 0.09908072 0.11080413 -0.18935046 -0.5432288 0.13079731 0.08022734 -0.41595897 0.3093196 0.3326032 -0.19213054 -0.3198514 -0.15464105 -0.36596045 0.17525329 -0.23451425 -0.050358396 0.0010367045 0.4827235 0.3180286 0.31518382 0.31972042 -0.22897995 -0.13802245 -0.0999044 0.059688415 -0.08867595 -0.10511923 -0.25461248 -0.13706893 0.01929326 -0.17723222 0.010984645 -0.43830913 0.16660738 0.30788395 -0.18398522 0.4991014 -0.0070083058 0.0069189235 0.072891146 0.10147514 0.09258318 0.2617815 -0.03814345 0.32966253 -0.093117595 -0.38881132 0.22562267 0.17856638 0.016350068 0.08682703 0.19887441 0.038823854 0.29748997 0.026805937 0.1457245 0.12515534 0.23345408 -0.03194751 0.13270251 -0.07917471 -0.40342715
378 0.44323128 -0.25806934 0.2779493 0.17335649 0.13544923 -0.35906237 -0.12136049 -0.3059234 -0.16525175 0.5341597 0.19243738 -0.25163186 0.34684497 -0.18928607 0.1323435 0.14339364 -0.2654153 -0.18882564 -0.004173056 0.32869878 -0.005973846 -0.08621644 -0.18555759 -0.32807016 -0.13399664 0.42692074 -0.02860193 -0.63638043 0.38394317 -0.18924032 -0.28693214 0.3201459 -0.078512855 -0.35494095 -0.04471244 0.1867728 0.2100282 0.047434483 -0.18678245 -0.020159462 -0.19306143 0.5581456 -0.22069424 0.057715137 0.14123641 -0.4124233 0.19313857 -0.1590791 0.081642576 0.5995365 -0.041950192 0.4191848 -0.34791535 0.0071630157 0.09972434 -0.024256175 -0.15676273 0.2890664 -0.30453882 0.26149708 -0.20272256 0.15962067 0.10390928 -0.096816525
45 0.29640147 -0.2678489 0.21285133 0.39838055 0.31105268 -0.090787165 0.14926939 0.15273209 -0.7181246 0.12706235 0.14714515 -0.28366998 -0.056699704 -0.17399916 0.21063578 0.50240475 0.20497413 -0.17229435 0.19077967 0.19841139 0.601719 0.52770174 0.12943362 -0.2832832 -0.005187895 0.21622796 -0.13080527 0.31942216 -0.028693968 -0.00022978215 0.2324156 -0.021972293 0.071927704 -0.2530236 0.029957842 0.16329925 0.027374092 0.14302082 -0.158002 -0.19940142 0.23748158 0.053226072 0.049707986 -0.09952422 0.41528413 0.11086398 0.19937225 -0.19363132 0.1843551 -0.003691619 -0.023495425 0.4127496 -0.19545649 0.037852827 0.06325996 -0.03249899 0.4722996 -0.32308486 -0.6221298 0.23626964 -0.0015729754 -0.12660114 -0.42363563 0.40268797
249 0.1919271 -0.028091678 0.34123912 0.11867201 0.14477393 -0.14877814 0.035341542 0.10146125 -0.11934344 0.09928151 0.1359709 -0.09675648 -0.4056396 -0.28078753 0.018204466 0.34443182 0.0533317 -0.22349785 -0.14199539 0.44499928 0.21958496 0.5725052 0.3046258 -0.12821853 0.0753788 -0.04258046 -0.04347429 -0.078144185 -0.004467674 -0.29717752 -0.04009738 0.0063031525 -0.072275065 -0.090625376 -0.034896266 -0.09026655 0.11093183 -0.21287884 0.25010872 -0.089452125 -0.025738325 0.07266538 -0.04371429 -0.048125587 0.5751829 0.13186699 0.25218666 -0.36696032 -0.1519984 0.10754362 -0.06716552 -0.16524933 0.10057871 0.11404633 0.14849329 0.035754602 0.027143307 -0.10781696 -0.20190282 0.21204247 0.16910191 0.17997147 0.21921194 -0.044237554
419 0.042834293 0.101694755 0.6956678 0.19921957 0.017767148 -0.26142475 -0.005384355 0.33220616 -0.2930559 -0.035434842 -0.0675628 0.123810254 -0.22861646 -0.11563828 0.15240385 -0.07503999 -0.6799695 -0.08612837 -0.15176336 -0.09165206 0.024686115 0.455791 0.3509312 -0.26193184 -0.00018932152 0.28147265 -0.1409281 -0.33668044 0.17404161 -0.18714286 0.16448835 -0.2347571 0.1264409 0.008061954 -0.05022419 0.24265076 -0.11736364 -0.2262102 -0.03074047 0.14551109 0.08940323 -0.10346133 -0.5220354 0.03331807 0.52094835 -0.3225284 0.033260897 -0.29843324 0.030584902 0.1440344 0.109824196 0.32021615 0.05119649 0.24193254 0.039519157 0.05998492 0.38104793 0.006790529 -0.11507215 -0.09560287 -0.22575249 -0.179598 0.03517913 -0.07244431
97 0.14325418 -0.08613376 -0.07866908 0.06746777 -0.28622866 -0.26425907 -0.12683089 0.008572845 -0.10884709 -0.018481001 0.3377194 -0.2591315 -0.35994637 -0.28392583 0.13081135 0.002790557 -0.6054724 -0.028368434 -0.48696667 -0.11109132 0.08282501 0.46522284 0.4699318 -0.6561226 -0.043987866 -0.23580927 -0.30145025 0.12094758 0.2341648 -0.107512 0.22190467 0.13188618 -0.017079417 -0.18473418 -0.46029148 -0.3456757 0.16628027 0.1602003 0.03783333 -0.44392785 -0.15944712 -0.26023737 0.13257173 -0.06944983 0.11995141 -0.057891656 0.158972 0.09534332 0.5362458 0.37060067 0.3262607 -0.10412851 -0.25629357 -0.1155168 -0.03888561 0.30800673 0.12593499 -0.094047524 -0.29789093 -0.39676303 -0.145344 0.33707377 -0.026852306 0.40618318
115 0.3111951 -0.18893342 0.03391977 0.17312442 -0.23508576 -0.61047065 -0.023319323 0.23740399 -0.23558931 0.27802786 0.35261616 -0.19104974 -0.27807704 -0.10964842 0.3015734 0.46956593 -0.026053987 0.035195433 -0.31887746 0.17657466 0.07929643 -0.047661316 0.4013442 -0.34973133 -0.08362009 0.21622437 -0.340224 -0.11522176 -0.018404987 0.07650571 0.013738813 -0.17299779 -0.15695317 -0.061101876 -0.3327007 -0.28594697 0.32319355 -0.18858042 -0.0991967 -0.038094528 0.081838176 -0.22704117 0.22703233 -0.026879694 -0.04479287 0.01716099 -0.24216217 -0.39441496 0.0005413965 0.21343568 0.14510386 0.22806945 0.10015238 0.1925831 0.117566146 0.1020025 0.10403137 0.07532608 -0.073483154 0.09218258 -0.065366715 0.15542814 0.08086305 0.298909
277 0.1752641 -0.6353907 0.0936405 0.38107818 0.15188637 -0.2920228 0.048009466 -0.09900363 -0.4722371 0.17214133 -0.04619627 -0.27471107 -0.09389155 -0.21516277 0.12323351 0.14653407 -0.32267737 -0.2295321 -0.3086116 0.22300816 0.15690547 0.12745912 0.1958552 -0.2378217 0.10500142 0.1427815 0.35238943 0.13981064 0.051668335 -0.024190828 0.014477607 -0.13204762 -0.07609774 -0.29784742 -0.3216775 -0.10376729 0.14824937 -0.22399528 0.1511386 0.04684205 -0.16320057 0.101379536 -0.14756624 -0.007985571 0.037867106 0.012155678 0.15486653 -0.23796241 0.10148794 -0.31442723 0.0030124732 0.2645921 0.11555969 -0.16578461 0.116336405 -0.18552674 -0.058111716 0.18574983 -0.28657177 0.13651612 -0.4583185 0.2809914 0.51600844 -0.00750399
450 0.43909606 -0.06432546 0.15703316 0.02158074 0.76282984 -0.18003449 0.0140899 0.2665069 -0.64060163 0.13327384 0.13926372 0.16373374 -0.616587 -0.09616285 0.26129583 0.3442978 0.1438105 -0.12031895 0.39887965 0.2521879 0.33296937 0.12585026 0.17863452 -0.5914766 -0.19887199 0.3582825 0.064621665 -0.16320316 0.138002 -0.06566263 0.027522843 -0.056214135 0.052516006 -0.5692568 -0.13768491 -0.23649369 0.779103 0.20591357 0.26537895 -0.25634632 0.35008302 0.17417999 -0.12265698 0.43526068 0.7744041 0.040798057 -0.26142678 0.025179949 0.031121012 0.08014749 0.2193739 -0.069142684 -0.028982783 0.43625546 0.41047797 0.19364552 0.3216725 -0.019984145 -0.1392516 0.2314057 -0.072572954 0.059348635 -0.49400958 0.07100029
796 -0.05618308 -0.313715 0.23476753 0.5462367 -0.121405646 -0.20008211 -0.22122663 -0.27426332 -0.368205 0.372305 0.51282233 -0.18264279 -0.13091862 -0.24641117 0.1124262 0.20428887 -0.36396208 -0.020209441 -0.3156101 0.33167073 0.11885488 0.17904703 -0.03862803 -0.23921587 -0.12869832 0.232102 0.29033414 -0.38355112 0.062415402 0.072685115 0.1001385 0.0017426877 -0.2587233 -0.1274985 0.18793744 0.39829192 0.3361511 -0.07007789 -0.01926592 -0.28792876 -0.02813574 -0.12881751 0.16767238 -0.07971998 -0.056202702 0.19837363 0.112420194 -0.31605747 -0.217537 0.19879395 -0.26680312 -0.46798265 0.15754223 0.10161916 0.34531552 0.2985977 0.06552542 -0.1595054 -0.2544074 -0.15057133 -0.5976544 -0.1999332 -0.030493453 0.063431084
142 0.29280204 -0.31553265 0.41513878 0.07766537 0.12127568 0.001515906 0.03581375 0.18003395 -0.5455863 0.06659972 0.256373 0.14878719 -0.43225586 0.25123802 -0.05651803 0.4840072 0.048258368 0.07679104 -0.1029354 0.35017395 0.29824018 0.57496667 -0.04373739 -0.4666371 -0.1753326 0.013852052 0.048539158 0.20346873 0.29838857 -0.11170978 0.37791526 0.09687932 0.17488731 -0.23792472 -0.03880003 0.0952473 0.42764086 0.19730906 0.046807356 -0.22227614 0.41871193 0.12921622 0.017581234 0.021039871 0.44429776 0.07725881 0.10889651 -0.14397886 -0.09230308 -0.36151168 0.22814555 0.30729216 0.25226504 0.13592815 0.39079693 -0.4272261 0.3116472 -0.0776263 -0.6831919 0.18408394 -0.14013669 -0.031713568 -0.5729239 0.0030351186
82 0.21586283 -0.03770269 0.1580421 -0.17961271 0.09107856 -0.53382546 0.09662163 0.1986657 -0.2414333 -0.17210737 0.1413519 -0.3965128 -0.15096894 0.2022244 0.1647571 0.13987048 -0.2913522 0.20706585 -0.081164815 0.1731491 0.10656166 0.1891953 0.23758867 -0.37557915 -0.1158986 0.51122296 -0.2470062 0.17182802 0.02131234 0.13196346 0.1552924 0.09687343 -0.083442144 -0.3970129 -0.4005911 0.025958212 -0.21061392 -0.19049685 0.11692884 -0.11278606 -0.115763694 -0.09330337 0.014748057 0.17278902 0.45219597 0.011670911 0.11856218 -0.375918 -0.0081850765 0.25836304 -0.12009486 -0.13416152 0.43061632 0.2624207 0.20868887 -0.1427347 0.027527675 0.14175835 -0.33536503 0.15278964 -0.15600458 -0.09218318 0.239205 -0.0030264992
64 0.24832171 0.12256724 0.26080504 0.12025267 0.23878163 -0.42453766 -0.11365523 -0.29080364 -0.43320036 -0.1060251 0.2868648 -0.18172804 -0.11098887 0.31153178 -0.05823949 -0.009743756 -0.25811028 -0.03224962 0.056326006 0.115059085 0.25156054 0.054371707 0.050857916 -0.57719207 -0.28832802 -0.13000576 -0.43245998 -0.10202798 -0.021577118 -0.082837984 0.34990346 -0.10344518 -0.2913638 -0.20643331 -0.41585955 -0.3131485 0.051562484 -0.23845643 0.24488379 -0.13552068 0.14776696 -0.49902213 0.18623713 -0.0940267 0.11345722 -0.08121789 0.1452461 -0.44951314 -0.11407192 0.070704244 -0.30905128 -0.059989017 0.01555375 0.1525594 -0.1676055 0.07423332 -0.12496281 -0.13877851 -0.14639547 0.37690115 -0.28988424 0.05493678 0.062055897 -0.18613873
166 0.5565126 -0.44997224 0.21095107 0.23355193 -0.39442405 -0.28675467 0.050271314 0.18103258 -0.21163692 0.30152205 0.1632733 -0.07362522 -0.19424887 -0.22047685 0.21909246 0.36664662 -0.44841394 0.28880483 -0.09020697 0.024167223 0.036807008 0.052959446 0.19527094 -0.79952806 -0.12264119 0.27096742 -0.10468251 0.032912698 -0.09759044 -0.04155954 -0.21669744 -0.14641279 0.11863482 0.06928043 -0.38759506 0.025056718 0.011858065 -0.017031962 0.12916525 -0.14038442 -0.19401456 0.082724206 0.08038332 -0.37724146 0.14903799 0.08378042 -0.044193283 0.0072538117 0.13036083 0.012685374 -4.1895564e-06 0.006821115 -0.033010386 -0.11474837 0.15161924 0.1348089 0.21245377 -0.26500264 0.095029384 -0.044707563 -0.42108443 -0.17325963 0.10191971 0.21637969
29 0.44159633 -0.4334721 0.10261929 -0.069809206 -0.2573176 -0.29660067 -0.108262 0.16442037 -0.57811517 0.060916096 0.09668325 -0.3735069 -0.46419758 0.124187715 0.38204518 0.5589456 -0.25438762 -0.2527745 -0.09884803 0.11336045 -0.2370937 0.10257193 0.20533979 -0.57087296 0.14375664 -0.027358321 0.015058024 -0.11638123 -0.338622 0.031900194 0.097001426 -0.13084882 -0.002511905 -0.44697535 -0.4296958 -0.15405758 -0.25113112 -0.18538553 -0.25791296 0.021843266 0.037210498 0.0036913345 0.15592976 -0.31148225 0.3395733 -0.0020369838 0.11037205 -0.27325326 0.17328799 0.025245804 0.26466274 -0.1542801 -0.09870958 -0.16764864 0.12390079 0.03904057 0.110827915 0.10362072 -0.036013346 0.087769836 -0.3218138 -0.13426584 -0.020649316 0.27529004
211 0.17950097 -0.07680162 0.064554654 0.09267983 0.124526836 -0.37448415 -0.016221061 -0.1391258 -0.21466208 0.09785084 0.38173848 -0.14306678 -0.14959279 -0.015865818 -0.031730387 0.07240803 0.007449947 -0.35120338 -0.32541874 0.058331966 0.094802745 0.62809944 0.30040202 -0.62045884 0.09661163 0.43146735 -0.2150364 0.22937866 -0.15584658 -0.10001101 -0.010451564 -0.050054558 -0.27544084 0.39576098 -0.30555224 0.1379581 0.17472161 0.016100403 0.16422449 -0.05819673 -0.11121537 -0.11748924 -0.16578737 -0.09794671 0.47676563 -0.032635618 0.20945632 -0.11168496 -0.17335004 0.13774547 -0.11484751 -0.056740943 0.14258236 0.25005528 0.34841824 0.34450266 -0.11929394 -0.33560744 0.08830829 0.07209523 0.08489485 -0.04261783 0.19356525 -0.11246994
278 -0.017326843 0.12713109 0.04119841 -0.16587393 -0.014444807 -0.2521077 0.21279219 -0.28939384 -0.016169379 0.37900865 0.16563588 -0.40305135 -0.18336543 -0.1901876 0.10419499 0.26728013 0.08640169 -0.1857993 0.09298674 0.181106 -0.00452608 0.19647934 0.58165145 -0.4969139 -0.21483126 0.21250278 -0.43982628 0.058408953 -0.043271493 -0.29790193 -0.18847923 0.05664155 0.07322824 0.09705196 -0.07262057 0.11253628 -0.16683762 -0.23954841 0.24030639 -0.14502735 0.14370184 0.12483458 -0.16837661 -0.18457597 0.43343288 -0.19346562 -0.12463523 -0.050893467 -0.2842823 0.0080488445 0.44239914 -0.13555042 0.057942726 0.2791983 -0.18326046 0.25596815 0.1197074 -0.16952208 -0.35139453 0.1717772 -0.1378517 -0.17474945 0.511727 0.046205543
143 -0.022585725 -0.0030030494 0.35450634 -0.026766721 0.09611122 -0.44990504 0.20508489 0.07039314 -0.08511781 0.24171115 0.13702656 -0.5009031 -0.031070774 -0.35709623 0.06412431 0.069362454 -0.23151293 -0.10863857 0.15425968 0.27519512 0.006600246 0.49403995 0.15073445 -0.39648068 0.013745574 0.39108765 -0.24910848 0.21035919 0.2336324 -0.3738597 -0.06905862 0.11856279 -0.29289606 0.19422217 -0.31305405 0.02569164 -0.102225654 -0.034936897 0.085453995 -0.3694943 0.32727084 0.19079787 -0.14476413 -0.062690854 0.029940708 0.036595736 -0.30640826 -0.31085333 -0.38603136 0.07565492 0.18991968 0.08448418 -0.031583752 0.13618158 0.04486316 0.44558564 0.05705281 0.08366469 -0.13578223 -0.03617443 -0.19563018 -0.29298297 0.06643457 0.031123312
170 0.44676274 -0.48181513 0.2772694 0.15805675 0.019376146 -0.46301517 0.1411226 0.1536906 -0.38650194 -0.010117468 0.4025503 -0.23401414 -0.34400707 -0.22092444 0.27782646 0.3826364 -0.22132722 -0.0395152 -0.18952343 0.081989884 -0.19485208 -0.01042079 0.07236051 -0.55794954 -0.2534396 0.027309204 -0.4062132 -0.036655914 -0.21740346 -0.12655771 -0.0600886 -0.074776225 -0.022145895 0.42790854 -0.11514798 -0.27899304 -0.023393434 0.004505491 0.15775828 -0.25234982 -0.25937542 -0.22539595 0.08138416 -0.14217709 0.2577887 -0.09945399 0.15198635 -0.10397646 0.09271156 -0.16313902 0.077303946 0.027974913 -0.01030927 0.034787025 0.08598647 -0.03150677 0.017943336 -0.20603967 0.12702954 0.14216681 -0.17375089 -0.005764217 0.18779512 0.48973173
116 0.320737 -0.2288261 0.022647321 0.4397317 0.025316497 -0.4910451 0.108329795 -0.004039879 -0.16872506 0.016909793 0.2498201 0.013436755 -0.33077085 -0.42207006 0.20631382 0.21175003 -0.27313486 0.039665293 0.18616283 0.22443502 0.071594834 0.14196306 0.39531994 -0.6190985 -0.089180425 0.06146766 0.016878113 0.25952852 0.022688631 0.12205712 0.0016985482 0.11684409 0.004933605 0.1130362 -0.16938695 -0.07159009 0.022950033 -0.37492624 -0.12889075 -0.033610877 -0.108373985 -0.08657071 -0.12721892 -0.20661616 0.14419259 0.18119258 0.07938379 -0.19102202 -0.054488063 0.040191222 -0.21813421 -0.13513651 0.123846106 -0.13070373 0.30577064 0.18260701 0.2945827 -0.46733254 0.07915941 -0.36776382 -0.33629403 -0.0031220336 0.5500075 0.24079645
423 -0.10957209 -0.18845615 0.33038786 -0.043978214 0.07194981 -0.3696555 0.087046996 -0.09972302 -0.19166668 0.18433183 0.14090315 -0.35091043 -0.18614048 -0.12139422 -0.13743316 -0.06843837 -0.15081652 -0.2246665 -0.13035122 0.06277048 0.2710908 0.42457163 0.4321703 -0.49297595 0.005786987 0.19379573 0.20140506 -0.006189288 0.43202874 -0.11641388 -0.15380289 0.05235415 0.053870447 0.009798879 -0.6073847 -0.1522212 0.032939497 0.127589 -0.24744229 -0.18802518 0.14594002 0.21952139 0.059588037 -0.39320156 0.10794753 -0.19754116 0.11315759 -0.21915588 -0.20587158 0.22845256 0.14823538 -0.10325942 -0.0070848777 0.117243215 -0.31612065 0.35772365 0.1447116 0.02671928 -0.11276978 0.21102941 0.10820114 -0.40163076 0.63690346 0.10926196
59 0.06375925 0.07516691 0.23696654 0.11773177 -0.04175838 -0.17948785 -0.55864525 -0.3629499 -0.072092086 -0.06197231 0.23240456 -0.15091799 -0.12634046 0.02711822 -0.122733936 0.09613984 -0.19267386 0.27884087 0.12126466 0.21685232 0.083506614 0.32216984 0.11248077 -0.6208786 -0.40351084 -0.2449025 -0.53171647 -0.016721426 0.09716924 -0.36262155 0.14465618 -0.21030244 -0.06711817 -0.02329295 -0.36404413 0.15697064 0.15430729 -0.20062901 0.109855086 0.028591787 0.39767635 -0.18584083 0.16026178 -0.17069383 0.08101994 -0.112462714 0.081906356 -0.25439063 -0.36737362 0.3900254 -0.27767017 0.15018286 -0.019569004 0.16510828 -0.1558811 0.07367644 -0.17194489 -0.2664488 -0.32265532 0.31594053 -0.10603118 -0.14066598 0.16048887 -0.13188852
365 0.2993908 -0.21476409 0.12881641 0.3297653 0.96625626 -0.22024271 -0.13408619 0.4164928 -0.64660895 -0.07884897 -0.068314165 0.1313696 -0.5988096 -0.36803585 0.13926543 0.5426256 0.10874901 -0.024999626 -0.010863474 0.42040718 0.16705476 0.28971076 0.17365968 -0.29424885 -0.036974214 0.11270773 -0.14135458 0.04301654 -0.10841223 -0.13690558 0.14712684 -0.052665755 0.46632773 -0.10572661 -0.0738994 -0.33280975 0.44706655 0.09188341 0.487761 -0.2507417 0.26861697 0.39683288 -0.010346638 0.46176925 0.59673524 0.0124164475 -0.41649958 -0.5467057 0.008228845 -0.19328162 -0.08584563 -0.035285134 -0.06893458 0.4452449 0.36458474 0.021799872 0.26390415 -0.11004606 -0.30292606 0.068638556 -0.22466882 0.023372399 -0.36055636 -0.098933294
7 0.24383293 0.12920982 0.32475808 0.16698271 0.29392418 -0.27273992 -0.45400524 -0.51166964 -0.02567279 -0.25944284 0.08980089 -0.20152612 0.09129535 0.0085856365 -0.16728567 0.25110137 -0.24740367 0.074419916 -0.03643774 0.049357526 0.1652746 0.22613084 0.013073068 -0.5122376 0.051703703 0.03861985 0.0067121834 -0.32962805 0.29812276 0.13738048 -0.19384553 -0.16781384 -0.3909137 0.035749726 -0.8148608 -0.10864399 0.11105811 0.4141313 0.12344727 0.30123395 0.004687163 -0.32707828 -0.0206372 -0.054998122 -0.08037775 -0.20190266 -0.10469675 -0.51123 -0.451902 -0.11951706 -0.40627977 -0.25925064 -0.10000393 0.4059196 0.003936436 -0.23996691 0.216176 -0.09918213 -0.6166529 -0.25079587 -0.62463534 0.34465647 0.09125241 0.11662148
171 0.4593233 -0.30707288 0.04608332 0.15908271 -0.16711695 -0.6200836 0.02705309 0.4211331 -0.15493692 -0.065545164 0.21245521 0.11825462 -0.51236403 -0.055513363 0.1386867 -0.044428274 -0.04306255 0.03431112 0.028481707 0.49004582 -0.03184278 0.18397322 0.2771176 -0.60289484 -0.09209454 0.16248374 -0.14258696 -0.10923583 -0.010985912 0.050058182 -0.0720924 -0.1753074 -0.028800014 -0.0013143366 -0.0002965899 -0.32866105 0.007378851 -0.35921973 -0.09833036 -0.42307633 -0.09453184 0.18236206 0.18964489 -0.4984965 0.46377754 -0.35155806 0.18161851 0.13042922 -0.03112838 0.06504687 -0.21286635 -0.18966569 -0.1813923 -0.07162126 0.037561648 -0.12785621 0.26188117 -0.38626987 0.20626877 -0.16964933 -0.4660887 0.064334966 0.47467092 0.04548791
337 0.073212706 0.116036005 -0.10289442 0.44189477 0.31006908 -0.2881823 -0.027614241 -0.040560003 -0.4492228 0.47639427 0.11838368 0.08671482 -0.053437386 -0.07117436 0.024536192 0.29441065 -0.27754027 -0.33476165 -0.3954836 0.26974872 0.26642805 0.44026688 0.16540311 -0.3404275 -0.5618531 0.0696162 -0.17809972 0.116305046 0.54394704 -0.14233285 -0.575986 -0.28558156 -0.2128964 0.015367962 -0.23775697 0.08994344 -0.21840435 0.23904936 0.026201997 0.080140956 -0.35405523 0.2754173 0.4054542 -0.20098817 0.1890977 0.08035902 -0.22947772 -0.19278546 0.13394712 0.28378633 -0.043195937 -0.100320525 0.25336048 0.052720077 0.32156482 0.06340344 0.30968708 -0.1414258 0.090174176 0.2394495 -0.3337884 -0.044790015 0.1830305 0.36459285
367 0.1067407 0.24324372 0.05044408 0.07742446 0.22535214 -0.6558611 0.39660895 -0.4684901 -0.18130465 0.1285662 0.20445879 0.34236023 0.09529846 -0.17767543 0.103633404 0.35806915 -0.2028099 -0.080092 0.20608732 0.08645682 0.35808223 0.21886003 0.13175622 -0.5053005 0.3477193 0.10276339 -0.44722107 -0.06564024 0.0458832 -0.3439621 0.25054556 0.3759735 -0.041866254 -0.21167906 -0.23386814 -0.020982618 -0.35726932 -0.28092465 -0.18210313 -0.025774324 0.42625064 0.3224931 -0.060373917 -0.2344754 0.20601566 0.08112392 -0.29126626 -0.115487225 0.1257016 0.10252754 0.24109718 0.09876071 0.107109316 0.006143298 0.2271497 0.34861276 0.22670925 -0.09332139 -0.15184698 0.2000442 -0.45834655 -0.10751964 0.38479593 0.22785494
406 0.29092386 0.04438137 0.2059026 -0.005620616 0.092107505 -0.5518808 -0.027945481 0.058948703 -0.15197186 0.20223135 -0.1874233 -0.21032959 0.058617976 -0.08028669 0.16697837 0.34194243 -0.18977712 -0.24894352 0.04057016 0.35054326 0.23026532 0.17116037 0.17872088 -0.116296 -0.085885815 -0.03422381 -0.5602204 0.32520998 0.3823259 -0.40642107 0.070474796 -0.45335406 -0.12981148 0.14595121 -0.4273052 -0.57142055 0.25106266 0.09210257 0.0766045 -0.09182581 -0.18323667 0.27132267 0.12507606 -0.051164024 0.1441068 0.1644796 0.5349393 0.041687246 -0.16796826 0.00764339 0.063277036 -0.08395868 0.1745744 0.1261961 0.09879377 0.12486938 0.10774273 0.2559018 -0.3241992 0.5738603 -0.24266817 -0.19337203 0.285758 0.10879209
492 0.29477012 -0.4160913 0.0962388 -0.11443322 -0.05636579 -0.24192066 0.08855329 -0.10841112 0.0032990363 0.43968102 0.17579249 0.22307312 -0.3213219 -0.076449186 -0.13935563 0.42767543 -0.012406929 -0.17033663 -0.014761175 0.06855805 0.034452625 0.011644517 0.52563936 -0.49735373 0.29169872 0.07678789 -0.14862673 -0.39509684 0.21141814 -0.23585074 -0.38015816 -0.15251362 -0.34082088 0.0047990354 -0.29399952 0.06452506 0.054177526 0.2625509 0.04529068 -0.30046833 0.054132566 0.20627141 0.34199384 -0.37846678 0.27330208 -0.39856064 -0.01980316 -0.27956614 0.18975961 -0.050822996 0.5319519 -0.06721922 0.32905138 0.28451368 -0.078705214 -0.14604114 -0.2525734 -0.37390584 -0.29566824 -0.304644 -0.29244435 -0.23501748 -0.059079252 -0.152551
437 0.5325401 -0.46950462 0.40037954 0.2956767 -0.23264693 -0.21690257 -0.108553775 0.06548037 -0.46899024 0.17191444 0.15896164 0.18845037 -0.545568 -0.13712358 0.12540987 0.59912306 -0.3391819 -0.40614292 0.24712984 -0.026269788 -0.31497958 0.22571827 0.14757116 -0.6286995 -0.14047843 0.06304613 -0.19218215 0.24410659 -0.16206063 0.05975354 0.030047137 -0.12880218 0.2748042 0.069749646 -0.16827312 -0.15610784 -0.055217005 -0.01027654 0.018766677 -0.13376804 -0.09138948 -0.25789374 0.008037024 -0.3979127 0.13408545 0.04241477 0.17152649 -0.1436087 -0.0026164397 0.1940934 0.06593055 -0.286994 -0.12859349 -0.19749254 0.013292265 -0.13746135 0.30527344 0.12562606 0.050048705 -0.3393439 -0.32243907 0.026448559 0.43656066 0.39575565
326 0.15732045 -0.1330815 -0.18631187 0.23768485 0.13315517 -0.70498186 0.04384804 0.0026849196 -0.18573898 -0.34200588 0.34415466 -0.26581487 -0.09603426 -0.103011675 0.37927702 0.17350899 -0.33437285 -0.27300608 -0.45286375 0.36887753 0.2806339 0.3262111 0.16926049 -0.3312247 0.035363194 0.34727675 -0.44514075 -0.13919185 0.20560671 -0.041679375 0.40362635 -0.32130626 -0.058580473 0.0250561 -0.21928428 -0.4409856 -0.033067442 -0.19765507 0.08985043 -0.16028479 0.01075919 0.02737208 0.4800639 0.274607 0.29943803 -0.15421043 -0.06264146 -0.09747827 0.06492672 0.20457272 0.12568554 0.21657914 0.39884788 0.24298969 -0.13269131 0.15317644 -0.0413005 -0.015566487 0.11607359 -0.0860807 0.0044656303 -0.3823323 0.10258381 -0.08557232
531 0.017748993 0.058207493 0.28731486 0.26987326 0.14005323 -0.66154337 -0.516871 0.19100794 -0.2827534 0.26197633 0.60907817 0.12503372 -0.52273107 -0.055142447 -0.2958427 0.119936764 0.34348094 -0.17448783 0.047916748 0.12684275 0.027792737 0.35641393 0.2104553 -0.15627904 -0.0453556 0.29525718 -0.23868777 -0.31583902 0.023865795 0.15869808 0.14871408 0.12736626 -0.08520694 -0.46145254 -0.22493188 -0.044815335 -0.0049647 -0.0017757248 0.041522674 0.014895558 -0.03888191 0.21617143 -0.13207199 0.33029622 0.3615933 -0.37616068 0.04393642 -0.08233995 0.030095382 0.25549257 0.13301544 -0.1452893 0.31663603 -0.37305257 -0.21276641 -0.3318093 0.3551687 -0.23326056 -0.19990297 0.17812298 -0.19709356 -0.2515272 -0.102125295 0.010906174
84 -0.14711072 -0.13986862 -0.14331101 0.22339262 -0.28510466 -0.32426065 0.20462467 -0.16173159 -0.41606024 0.13371931 0.38989386 -0.09618465 -0.1699421 -0.24671954 -0.07711472 0.13354823 -0.32322964 -0.04135321 0.066242486 0.34664845 0.10973727 0.5757227 0.4120343 -0.22555967 0.16295393 0.104697265 -0.20489912 -0.16890337 -0.006510437 -0.21032722 0.19803496 0.23358236 -0.28406852 0.16058096 -0.16042748 0.016312353 0.16313249 -0.1692604 -0.12735023 0.12446572 0.3313931 0.08980561 -0.10554017 -0.15153156 -0.037543554 -0.28749 0.13063137 -0.10758563 -0.10388738 -0.24517252 0.24688397 0.14932972 0.10609047 0.43745697 0.26050976 0.19231214 0.013537173 -0.26088434 -0.2727432 0.170225 -0.09558745 0.17970815 0.12310442 -0.18264727
232 0.29125535 -0.45859653 0.21491498 0.229488 0.22651437 -0.22712143 0.2070296 0.005078034 -0.32979777 0.37779582 0.016989453 0.055464283 -0.223952 0.10151402 0.15679358 0.18688937 -0.093175344 0.040992755 0.17156461 0.5730613 0.35560122 0.30232087 -0.13616487 0.044220768 0.19432218 0.358528 0.22986643 -0.23451485 0.48516884 -0.14773348 0.08395608 0.008735774 -0.12316134 -0.023088042 -0.16752446 -0.11571116 0.2928478 -0.18671377 -0.1086785 0.2511433 -0.00588366 0.27564186 -0.18528517 0.5055729 -0.028863734 -0.45405713 -0.22835621 -0.24985386 0.10400984 -0.027489902 0.2205122 0.3473925 -0.2914445 -0.31990996 0.029828403 -0.07158004 -0.14875913 -0.10874671 -0.77952456 0.039859664 -0.58436406 0.41898543 0.29897168 0.5448163
117 0.5372076 -0.33509287 0.114224546 0.21794522 -0.34188917 -0.43421072 0.09416402 0.24297135 -0.2724786 0.17226468 0.055161703 0.0834878 -0.25126836 -0.19531949 0.29187214 0.40954322 -0.5521226 0.41648817 -0.020728236 0.18565339 -0.05556302 0.20972039 0.14087863 -0.64778316 -0.16079186 0.28461817 -0.28107762 0.09854091 0.07022391 0.123440586 -0.07520198 -0.38753328 0.07138126 0.07974728 -0.19165815 -0.12715597 0.31141952 -0.20881008 0.1544116 -0.12864368 -0.23018067 0.20592947 0.015491615 -0.35477036 -0.24991657 -0.059611425 0.13731033 0.0009005577 0.034992475 0.185244 0.055619504 -0.10499065 0.19421835 -0.04552482 0.10132408 -0.017166188 0.34637937 -0.14601888 0.23902102 -0.109782584 -0.41979337 -0.02401694 0.2640119 0.3300252
12 0.24103141 0.057087373 0.22709215 0.2464741 0.5643173 0.07562871 0.15260322 0.037677687 -0.6920924 -0.33375975 0.20352633 -0.25186893 -0.4385326 -0.1931102 -0.226882 -0.091007076 0.10926833 -0.0634858 -0.38949853 0.69485444 0.16760932 0.7203168 -0.053522326 -0.5669851 0.05512677 0.22949095 0.047159668 -0.19620997 0.1406517 0.037175447 0.10433901 -0.06687043 0.31962734 -0.028970594 -0.07988241 0.043012075 0.5335621 -0.08122317 0.116056085 -0.06335157 0.55763793 0.10365182 0.15013549 0.044046868 0.360089 -0.08731916 0.13351493 0.23799321 0.33855104 0.11872275 0.3060115 0.38195112 -0.0511868 0.4339614 -0.04640133 -0.004354505 0.32117265 -0.12549803 -0.48953173 0.009011009 0.031120729 -0.31667677 -0.51578337 0.4891768
114 0.43916312 -0.48770666 -0.23990662 0.30872437 -0.39251205 -0.5387668 -0.13675556 0.12475068 -0.16742131 0.10666498 0.30946442 0.05409948 -0.28893358 -0.19440731 -0.08029768 0.57377017 0.07410218 -0.008523675 -0.095009394 0.04918924 0.0026646084 0.05285437 0.026561076 -0.4752173 0.02724401 0.52466625 -0.1673676 -0.032777622 0.22568789 -0.15185562 0.20318994 0.06667811 0.09308043 -0.3343675 -0.47226614 -0.28493324 0.54274035 -0.008717432 -0.25204608 0.080176085 -0.14247242 -0.124162406 0.31579086 -0.30408648 0.048352767 0.0875091 -0.20524517 0.011888859 0.20163144 0.22069988 0.35820627 0.21611251 0.21325447 -0.15546848 -0.17235248 0.21412022 0.28769776 0.07175504 0.057812333 0.11935294 -0.34729213 0.27241477 0.3869111 0.42318943
138 0.19895169 -0.0210771 0.30432692 0.035014074 0.0701366 -0.5536084 -0.06894477 -0.30348408 -0.25401118 -0.14235997 0.34839046 -0.5822861 0.09055451 0.20186706 0.18024887 -0.15150078 -0.4730147 0.011132303 -0.13343892 0.14599611 -0.24506262 0.042931702 0.08397061 -0.7612292 -0.23376188 -0.21830864 -0.5199076 0.11852476 0.09805018 -0.061758198 0.5614127 0.055276174 -0.018250972 -0.3839738 -0.45797113 0.036734678 0.07605696 -0.10124079 0.2523823 -0.23697254 0.36846593 -0.15875083 -0.12889087 0.0747766 0.3687496 -0.19188637 0.07075087 -0.2925291 0.08548613 0.008592281 0.09117135 -0.1988111 -0.027606346 0.3390496 -0.21178856 -0.054312672 -0.20722987 0.1653395 -0.07205484 0.6080297 0.11889222 0.12119046 -0.10306543 -0.012645464
75 0.0056398953 -0.13703012 0.19092654 0.29631808 0.18383574 -0.07382176 -0.11398578 -0.6867108 -0.27193025 0.22581984 0.16740355 0.012609958 -0.30849013 -0.07059123 0.17648597 0.6503248 0.005472552 0.27092355 0.11602005 0.15240912 -0.26265338 0.37682903 -0.16811813 -0.20624967 -0.21952835 0.10764949 -0.32626244 0.21313557 0.040440146 -0.1748524 -0.29390943 0.017149836 -0.07196598 0.4526809 -0.28299868 0.16483654 0.14842752 0.019272098 -0.093526594 -0.06706086 0.08714515 0.59747934 -0.14149453 -0.14678004 0.6874467 -0.26066038 -0.18721642 -0.34694892 0.3045217 0.31438708 0.21581574 0.28024453 0.06774952 0.14009616 -0.21528132 -0.041841425 0.35927176 0.4969435 -0.099123314 -0.2591332 -0.24969791 0.25481865 0.31436738 0.0065656397
5 0.1299289 0.15973625 0.29525653 0.055069767 0.065996945 -0.48605898 -0.25144318 -0.28444123 -0.10950547 -0.21390155 0.2751124 -0.045115713 -0.11183714 0.099977024 -0.19039147 0.24192509 -0.19701709 -0.05141351 0.17002107 0.106944665 0.2846291 0.37321943 -0.07470285 -0.7552317 -0.08821782 -0.22623236 -0.5377715 0.14900818 0.12748653 0.062768504 0.18850666 -0.46798635 -0.18961714 -0.37478188 -0.3146679 0.14601536 0.30357948 -0.1395838 0.2140753 -0.16999738 0.10210097 -0.21872896 -0.11964462 -0.30230585 -0.22635393 0.024693415 0.011813532 -0.42943016 -0.036083806 0.25750542 -0.3598207 -0.0924886 -0.06641943 0.4390634 -0.42338783 -0.026233278 -0.3828852 -0.14389008 -0.056356244 0.5652349 -0.3884269 0.23855986 -0.03924154 -0.23036718
496 0.12255724 -0.12678051 0.0146490075 0.16373922 0.44228974 0.08820844 0.34693775 -0.20615204 -0.75493026 0.056688484 0.37200958 0.045049716 -0.24432635 -0.15328883 0.042840682 0.18246286 0.33523682 0.16364826 0.073987395 0.5045475 0.2758749 0.49579832 0.053868633 -0.32013988 0.45978475 0.12758976 -0.13781105 -0.031228602 0.5622825 0.10531346 -0.20304076 -0.043371778 0.16848105 -0.41808286 -0.17822252 0.14815325 0.6677298 0.31098714 0.23124222 -0.118334174 0.24005139 0.026275728 -0.09715407 0.24255918 0.22201607 0.19294837 0.038115297 -0.34065145 -0.0048492732 0.03677019 0.060404453 -0.38170904 0.038364574 -0.29645637 0.07331365 -0.50502396 0.68290895 -0.16218166 -0.58179104 0.14138255 -0.2763903 0.10114846 -0.19272016 0.20786329
300 -0.24373923 -0.0046952968 0.21798737 -0.2265295 0.052387558 0.039577924 -0.172037 0.019371135 -0.47813267 -0.17912085 0.38031995 -0.33443615 -0.26079243 -0.02611123 0.2311823 0.013082648 -0.3974839 -0.035878163 -0.1495561 0.10220676 -0.0063376143 0.18768853 0.484038 -0.44662866 -0.34778583 -0.047116637 -0.43552685 -0.011089737 -0.087422565 -0.1738241 0.2756724 -0.28280273 -0.36462107 -0.41323355 -0.510157 -0.42078084 0.32513964 0.03339805 0.17696662 -0.5027763 0.044853896 -0.29746407 0.16769771 -0.042481925 0.04199394 -0.21917619 0.17628561 -0.29885906 0.074500166 0.0782768 -0.053746127 0.1668702 -0.12026185 0.13254894 0.1693425 0.1718961 -0.107710876 0.06956922 -0.03525028 0.26248103 -0.28293562 0.027170498 0.17082663 0.13983443
491 0.110096216 -0.7310979 0.16781172 0.36435032 0.16054912 -0.17007783 -0.18239562 -0.024840157 -0.37626922 0.43998235 0.33083144 -0.13763556 -0.17022581 -0.3324585 -0.13225906 0.20411707 -0.2597068 0.15758447 0.03787643 0.44241056 0.075999536 0.29355747 0.31679398 -0.104820885 -0.079273686 0.50969714 -0.27925342 0.018172076 -0.054829925 -0.2548766 -0.0996583 -0.13708195 -0.4292118 -0.42879185 -0.07249818 0.20777573 0.20305213 -0.028946277 -0.1535603 0.47018036 -0.0904699 -0.15376379 -0.061203904 -0.17192276 -0.03588006 0.07238586 0.16223799 0.24611658 -0.31893444 -0.041122604 -0.11974802 0.34697863 0.3057045 0.12244748 -0.34226823 -0.004201899 -0.23724905 -0.06921016 -0.11072023 0.057272416 -0.49201393 -0.044948682 0.3247621 -0.028655918
471 0.3167978 -0.19140376 -0.15285282 -0.09852787 -0.0451043 -0.41682687 -0.18662578 -0.107732445 -0.28536972 0.13398439 0.23635305 -0.23231947 -0.40284654 0.0518144 0.31929 0.2706274 -0.0073740585 0.13368367 -0.0021393793 0.13193649 0.106002316 0.46548063 -0.13785924 -0.5648967 -0.36833483 0.5312155 0.053376857 -0.13423704 0.11644748 -0.14263803 0.4899071 0.19102564 -0.526501 0.08023373 -0.30864802 0.14688006 -0.19760524 -0.09430178 0.030945392 0.33259448 -0.08104304 0.0013390365 0.06271318 0.038744044 0.083822176 -0.5682414 0.36818352 -0.25935587 -0.4146714 0.09761151 0.037591208 -0.2280263 0.06347829 0.19884369 0.25377426 -0.12952091 0.20991334 0.042186994 -0.19284211 0.0220049 0.22384343 -0.31117943 -0.108946405 0.23883656
215 0.05115077 -0.22379643 0.12982441 0.29315722 0.18006676 -0.22592194 -0.33574194 -0.538178 -0.24227372 0.21562679 0.5840937 -0.2247578 -0.023010412 -0.42839882 0.20845182 0.4043175 -0.041039534 -0.13162497 -0.021262502 0.10380703 0.43592876 0.16839834 -0.19801736 -0.016883304 0.14633821 0.17713577 -0.76932853 -0.21421935 -0.032540012 -0.019090353 0.22777343 0.0060962564 -0.028686611 0.37643343 -0.16646628 0.19432226 -0.2237056 -0.20615298 0.2600849 -0.16554189 0.046667017 0.06593878 -0.43062094 -0.26175934 0.38037214 0.08797643 0.46872395 -0.12981467 0.40623313 0.13203959 0.15257007 0.22990353 0.16308026 -0.19719392 0.14310057 -0.027683599 0.2877657 0.44236588 -0.4398635 -0.24917169 -0.2531016 0.09923216 0.34532326 -0.4872497
62 0.64021635 -0.07386575 0.07327343 0.09149605 0.097944416 0.15972851 0.32458127 -0.19020046 -0.3575975 -0.024218852 0.2754212 -0.20676807 -0.39263314 0.04322292 0.42346588 0.068827525 -0.35749006 -0.44690868 0.469336 0.6527997 0.1974945 0.40203112 -0.18206267 -0.18805227 -0.36687312 0.32721907 0.033404693 -0.21776056 -0.054739706 0.30402678 0.090085186 0.66115844 -0.011874101 0.048633575 -0.08050794 -0.32553706 0.58175564 0.14877781 -0.10532223 -0.13916455 -0.30699205 0.41912264 -0.60924596 0.34705108 -0.35201064 -0.14540206 -0.17488986 -0.09448329 -0.023891937 0.059994508 0.23338422 0.1589388 -0.25653887 0.086925276 0.061239995 -0.30675977 0.17304459 -0.15201508 -0.67573106 0.16497236 -0.5047412 -0.14957662 0.17889456 -0.09638069
372 -0.1871382 -0.011753445 -0.11940959 0.08936088 0.49592933 -0.7027939 -0.1403203 0.057973962 -0.23164459 0.09720214 0.07539054 -0.307939 -0.486138 0.11339348 -0.08608854 0.18223998 -0.28481552 -0.016637923 -0.18886144 0.13328858 0.24416268 -0.12661143 0.25427115 -0.7636003 0.15929465 0.13032697 0.106061734 0.28619963 -0.26328778 -0.014377468 -6.781378e-05 -0.26491955 -0.10231657 -0.19026162 -0.20927563 -0.30870098 0.13249812 -0.37963772 0.030061176 0.0046079685 -0.023257637 0.4733718 -0.05728528 0.059412006 0.14053147 0.015095762 0.40440375 -0.519999 0.14934562 -0.069534846 0.22159368 0.17168237 -0.24194132 0.016336944 -0.07231168 0.47810677 -0.08609097 -0.06885967 -0.2070693 0.5200859 -0.034464203 -0.03132322 0.029232033 0.16493957
20 0.23225626 0.09242176 0.36138794 0.3735704 0.433466 -0.22053969 0.4644705 0.08175229 -0.5879904 0.13451192 0.18675712 0.023114193 -0.5316057 -0.2067833 0.2347947 0.29110742 0.15544336 0.22116266 0.19026744 0.36890125 0.37399614 0.5754454 0.027721262 -0.43099886 -0.34669182 -0.07779809 -0.14283165 0.20911962 -0.09766008 0.039939236 -0.032914966 0.03439314 0.065889455 0.16453278 -0.0983898 0.35380584 0.2463916 0.19500573 0.29585424 -0.031325955 0.12845303 -0.15702319 0.0004194325 0.090081446 0.22945498 -0.0010956924 0.15683553 -0.17666803 -0.049260102 0.116637334 0.32053208 0.30320454 0.23562324 0.08530421 0.33057424 -0.31082785 0.14897236 -0.22896068 -0.5080411 0.08330458 -0.05786866 -0.326516 -0.45634422 -0.34714663
14 0.24625514 0.10537838 0.26976672 0.6434055 -0.42238557 -0.3163644 -0.087449476 -0.09859817 -0.17423904 -0.24034971 0.3821367 0.1395207 -0.35647684 -0.061207775 -0.00021424801 0.2704946 -0.45965734 -0.13902482 0.039881237 -0.1333965 0.36598492 0.21245642 0.38109598 -0.77890587 0.1233812 -0.020250607 -0.066265486 -0.43883032 0.2838596 0.008921018 -0.023879819 -0.33533004 -0.20705307 -0.42715153 -0.20691651 0.37464723 -0.14878078 0.073076025 0.001513045 -0.12570374 -0.1346827 -0.23923041 -0.26928705 0.16409963 0.25194618 -0.16001083 0.103995495 0.014849039 -0.3314966 -0.33974978 0.3095745 -0.29454932 -0.19704692 0.3841873 0.062932454 -0.2588884 0.079690635 0.23582691 0.38264304 0.03457996 -0.3291171 -0.20801705 0.034433346 -0.122365996
134 0.2642228 -0.35294014 0.42557514 0.38468593 0.14032556 -0.24858716 -0.11306626 0.1553848 -0.12725297 0.26472622 0.096710294 -0.095363826 -0.40917346 -0.14561589 0.6088061 0.5003867 -0.42961043 0.09207088 -0.417263 -0.018840656 0.06512068 0.34002167 -0.12858345 -0.35818237 0.1469147 0.18859036 0.29648685 0.07817549 0.0965025 -0.22315186 -0.17768632 0.27433437 0.22989261 0.02632223 0.023791464 -0.10763734 0.2902327 0.2172548 0.10511192 0.4186069 -0.1726549 -0.22380905 -0.030545516 0.012445811 -0.011024637 -0.34904653 0.109955385 -0.2707736 -0.086081535 0.08274678 0.15813448 -0.13811524 0.46691352 -0.17907159 0.05525655 0.17782685 -0.073714554 0.048705176 0.018803535 0.38831094 -0.623742 -0.119091585 0.40646192 0.30378857
418 0.023648225 -0.22417407 -0.07548813 0.28223675 0.37558177 -0.59771895 -0.050750412 -0.25536937 -0.3138466 0.038108706 -0.20523742 0.070802055 -0.15469119 -0.048196353 0.43845677 -0.03608174 -0.33369702 -0.32028717 -0.34224734 0.566123 -0.15421224 0.7879694 0.48614076 -0.19949655 -0.15971586 0.2992941 0.1156363 0.06120565 0.013332096 -0.18842876 -0.24883458 -0.34848946 -0.33853403 -0.036554113 -0.013007887 -0.42880043 0.20795098 -0.0020630856 0.08374144 0.11333766 -0.068774074 0.06984899 0.016864553 -0.15574846 0.059927024 -0.21223618 0.37741667 -0.1512057 -0.08381646 0.1738426 0.11479411 0.021007555 -0.20955376 0.42251113 0.023184573 0.08877496 0.26202145 0.2258034 -0.0677539 -0.13973323 0.0329803 0.2937891 0.2453821 0.15507825
17 0.00565402 -0.14790611 0.7391677 -0.17517357 0.124171086 -0.3631286 0.4628493 -0.34411767 -0.3634671 0.14697963 0.021102944 -0.28726605 -0.19652724 -0.12229813 0.028106788 0.19069928 -0.36302778 -0.09264762 0.41417307 -0.042845637 0.13501915 0.20954448 0.50999933 -0.25949064 -0.28960967 0.38903633 -0.14130193 -0.045387972 -0.15491937 0.20158036 0.034558576 -0.33238617 -0.029887328 0.1617071 -0.40858394 -0.25686634 0.22941156 0.09870972 0.0056173825 -0.2558592 -0.057552535 0.17349698 0.095906325 -0.07504812 -0.02219036 -0.0834717 0.6442904 -0.046637006 0.01571626 -0.13162716 0.19359583 -0.30658185 -0.20797107 0.37810868 -0.106219836 0.18688338 0.39226493 -0.070000336 -0.19414873 0.39157912 -0.0363858 -0.27447152 0.5242788 0.023378368
368 0.5144193 -0.14206707 0.07869622 0.18043521 -0.1951499 -0.4158022 0.030522197 -0.021164332 -0.45347452 0.18523619 0.105702706 -0.44509974 -0.25485706 -0.39543566 0.11341092 0.57121 -0.24753843 0.3472023 0.16455905 0.16801202 -0.32309368 0.48787048 0.36226094 -0.5322046 -0.04771893 0.2310145 -0.02607603 -0.19436146 -0.20037822 0.017971525 -0.16758923 -0.3763642 0.12729946 0.082149304 -0.12700428 -0.25754458 -0.25901383 0.10010552 0.06427039 -0.45199227 -0.017994251 -0.24830782 0.5058483 -0.42066848 -0.04582872 -0.030045787 0.042182215 -0.15920441 -0.18225469 0.11340222 0.15313084 -0.041207664 0.05056566 0.0977018 0.102911234 0.0677517 0.23297225 -0.117235094 -0.006536821 -0.03505526 -0.09442262 0.19313467 -0.02537738 0.2570107
209 0.09731015 0.0429568 -0.18741076 -0.012103605 0.58946526 -0.009154312 0.05484735 -0.02790915 -0.4778786 -0.02323801 0.09897051 -0.18044524 -0.47069156 -0.1759672 -0.012172573 0.025811363 -0.3089367 -0.024304308 0.22168818 0.31070566 0.3518031 -0.035776947 0.39288765 -0.48520285 -0.02196581 -0.038339246 -0.20720248 -0.09741188 -0.115513295 -0.10990806 0.31205007 -0.22063409 -0.32164994 -0.10289284 -0.673986 0.062049933 0.19321553 -0.057416536 -0.10152495 -0.3253689 0.04579776 -0.34755972 0.08219966 0.15955871 0.07171832 -0.06430776 0.25674975 -0.4011393 -0.04111204 -0.013143765 -0.055051025 0.121058285 0.12142669 0.20796895 0.059881266 0.3904598 -0.060134325 0.040324394 0.05620167 0.31500465 -0.22936727 -0.039700132 0.36308154 0.14726004
252 -0.013721803 0.0008895053 0.28631166 -0.03098278 -0.08094363 -0.2743988 -0.45015004 -0.32679358 -0.27756685 -0.061801385 0.27196184 0.009773966 0.093062066 0.2506342 0.073072545 -0.24740928 -0.4076155 0.02968034 -0.0021513507 0.16423547 0.3490021 0.29756242 0.5137184 -0.6334319 -0.39714462 -0.20029172 -0.65324265 -0.051447306 -0.045756407 -0.19830231 0.3643889 -0.02215 -0.004214374 -0.049090896 -0.42193475 -0.092138596 0.31884137 -0.1376581 -0.09932751 -0.10470561 0.10288547 -0.2066036 0.023995137 -0.33483395 0.19720797 -0.12354957 0.26717678 -0.31359616 -0.080533005 0.16151527 -0.13930102 0.053869903 -0.30262545 -0.059247755 -0.07779096 0.075710855 -0.18411815 -0.20899072 -0.25593054 0.14630419 -0.17162646 -0.008913747 0.19800125 -0.2514312
24 0.61532867 -0.3459687 0.15836263 0.19997871 -0.2586004 -0.25191566 -0.052254703 -0.13229656 -0.12543014 0.34823555 0.2305621 -0.049440764 -0.4343225 -0.13900447 0.24698175 0.46044955 -0.12307433 -0.34852773 -0.063272916 0.02613238 -0.21255824 0.1720132 0.17427678 -0.7213921 -0.1535296 -0.16507523 0.10012822 -0.00079914887 -0.4160426 0.08205776 0.2589019 -0.15045367 -0.10109092 -0.03390931 -0.38011795 0.122278355 0.15506892 -0.2924317 -0.095346175 -0.15537143 -0.38489214 0.122071266 0.12962073 -0.38803878 0.52762425 -0.09337519 0.05073319 -0.15956055 -0.32536572 0.15201175 0.21015018 0.001326628 0.40509436 -0.26552787 -0.21592966 0.008264339 0.066419184 -0.07541128 0.17471868 -0.23799612 -0.30693075 -0.19210365 -0.11221494 0.37839335
173 0.34327823 -0.50117594 0.3696627 0.5025927 0.2672485 -0.15020263 -0.012942066 0.21869452 -0.23173425 0.14618811 -0.0042551607 -0.21247238 -0.18490432 -0.29573843 -0.12987989 0.45647654 -0.5786217 0.099430695 -0.5734242 0.17417134 0.010399703 0.47340325 0.081977665 -0.19834656 -0.11978246 0.23678103 -0.0483123 -0.07073119 -0.20546961 -0.29275894 0.039289795 -0.20451011 -0.23990005 -0.40631545 0.04274825 0.17287865 0.20119937 0.101549916 0.010437464 -0.07750486 -0.2801928 -0.05638382 0.040011596 -0.09367144 -0.082193956 0.27551323 -0.12500867 0.04245846 -0.0807109 0.096448064 0.10076137 -0.027949013 0.04338471 -0.39860943 0.08234177 -0.21955383 -0.15081546 0.11137236 -0.25909078 0.08264175 -0.45003378 0.1994733 0.19975394 -0.103468694
410 -0.26166934 -0.31783146 0.21972275 -0.050617486 -0.12145199 -0.1596028 -0.72632444 0.105204254 0.14723107 -0.32677373 -0.068165265 -0.065942325 -0.20799045 -0.22233951 0.024487529 0.3119958 -0.58165854 0.05925129 0.35998532 0.06538881 -0.02254513 0.60586023 0.039989788 -0.6835071 -0.1975377 -0.2780829 -0.64951736 -0.33924937 -0.048382103 0.025870137 -0.1621497 -0.34919447 -0.07973369 0.033457413 -0.3962869 -0.15365493 0.1532933 -0.03822776 0.21032518 -0.17292564 0.467376 -0.2279995 -0.16589507 -0.016350495 0.3730167 -0.0042922124 0.109722465 -0.15614672 0.20607422 0.37473848 -0.43113375 0.016257847 -0.07838751 0.21955816 -0.25822598 0.025816849 0.16471587 -0.35661864 -0.42407057 -0.27123752 -0.06548042 0.23214072 0.3566749 0.073003836
3 0.19670208 0.40515858 0.3047716 0.10683852 0.09962729 -0.4245959 -0.19424404 -0.21872686 -0.049391832 -0.055325918 0.14114259 -0.15795405 -0.06517229 -0.03531253 -0.091312796 -0.19030412 -0.58299947 0.027526665 0.29864186 -0.11399784 -0.05098364 0.54703784 0.024920255 -0.67183053 -0.0792337 -0.15943293 -0.7034943 -0.21796517 -0.23135537 0.105911516 0.20193239 -0.25957236 -0.19928893 0.13647169 -0.38177693 0.040323626 0.35826808 0.077509016 0.22100708 -0.05069331 0.35876352 -0.24075434 0.2771827 -0.16599439 0.022664972 -0.007084249 0.11396127 -0.6219228 -0.24837856 0.009540756 -0.25584486 -0.13266256 -0.17042884 0.10316651 -0.4728442 -0.046978142 -0.33847365 -0.16537753 -0.320877 0.3776947 -0.48842546 0.31619132 -0.011856239 -0.08479697
21 -0.07024205 -0.0062115197 -0.07430479 -0.16000682 0.07871502 -0.5099219 0.1428647 -0.112725765 0.17601028 -0.07384492 0.29322535 -0.48448718 -0.3126343 -0.4359062 -0.3109132 0.6656111 -0.42506227 0.120132595 -0.06600701 0.2808347 0.012154184 0.34286734 0.25898173 -0.41118595 0.22719714 0.10994728 -0.17344038 0.04475076 0.06370186 -0.08145881 0.35320207 0.33009952 -0.20290376 0.36400408 -0.36426792 0.0047473228 0.18853624 -0.06008775 0.2231791 -0.11483675 0.23288372 -0.058555696 -0.030798104 -0.21879536 0.40120146 -0.37685415 -0.111483976 0.07252769 0.3694959 0.49583858 -0.025858384 0.08699802 0.15247257 0.480245 0.19614527 -0.50309783 0.21126536 0.23608233 0.18164945 0.17528434 -0.47245437 -0.22719367 -0.37359706 -0.07446534
8 0.5618533 -0.041027606 0.43425032 0.2666388 0.26517418 0.19251272 0.29019493 0.35911116 -0.3728741 -0.24088548 0.34256598 0.17268512 -0.51178145 -0.15308116 0.15293218 0.26738152 0.15666194 0.15302548 0.15327154 0.33961046 -0.007190935 0.47512653 -0.009392348 -0.70305365 -0.23571567 0.40148327 0.017601185 0.2295655 0.028619343 -0.07187138 0.102255404 -0.13994476 0.36590818 -0.07494812 0.12469369 0.007987053 0.52400285 0.30631864 0.064800866 -0.025730763 0.46794456 0.14824668 -0.23448384 0.27696785 0.53421766 0.021804506 0.1265438 -0.41662943 0.27802017 -0.052363463 0.27837592 0.26459554 0.12893762 0.0530994 0.10084357 -0.26967523 0.16452745 -0.35223576 -0.56198657 0.25791073 -0.06983874 -0.18780869 -0.36223036 -0.015117909
361 -0.15715607 -0.41988173 0.3196572 -0.13827433 -0.079600245 -0.43034914 0.73400724 -0.15930377 0.009482323 0.033733964 0.23523055 -0.2532709 -0.33418128 -0.09997221 0.1183488 0.17880885 -0.0040392363 0.35429442 -0.10087166 0.31252974 -0.18163721 0.4900216 -0.24794582 -0.4383122 -0.06795192 0.35121104 -0.20623152 -0.008411714 0.08921901 -0.14895996 0.16531454 0.050767187 -0.07939783 -0.004337642 -0.493645 0.3130486 -0.005679847 -0.1977788 -0.17770474 0.25791204 -0.13148737 -0.22334799 -0.014628707 -0.04440226 0.52494204 -0.057117846 0.21630281 -0.51343364 -0.13959473 0.28988853 0.19280161 -0.0755635 -0.04409769 0.33099732 0.20147976 0.1471587 0.12345394 0.23209755 -0.051746685 0.22496173 -0.072521314 -0.4477898 -0.13485172 -0.17476414
544 0.28797793 -0.0069639506 -0.07146914 -0.003127195 -0.25460404 -0.29027277 0.08425175 -0.15185283 -0.1078399 0.3016734 0.4151432 -0.16425298 -0.14975893 -0.25307333 -0.41891664 0.38033208 -0.27329484 -0.24559611 0.48587295 0.696434 -0.09314366 0.25379196 0.10590962 -0.1574442 -0.159019 0.34357828 -0.22457792 0.21922886 0.1353232 -0.1523643 -0.19725673 -0.10021347 -0.17088121 -0.18904065 -0.4861069 0.087264255 0.30401212 -0.15655461 0.28632545 -0.02471847 0.18167496 0.19850732 -0.34245113 0.30868828 0.236427 -0.093649425 0.2570987 -0.33177465 -0.4418014 0.24757454 -0.28593835 0.083071694 -0.1526293 -0.1292936 0.18154252 0.23499705 0.04575284 -0.30133733 0.1714803 0.0723736 0.21636173 -0.28110808 0.21258982 0.0008988619
267 0.29489765 0.47741368 0.1490067 0.43129057 0.37349322 -0.010877522 -0.12554243 0.060022604 -0.25132018 0.6140558 0.23731516 -0.27338123 -0.06609252 -0.25779802 -0.06560357 0.06236211 -0.38572684 0.13212776 -0.11723295 0.3349992 -0.1393765 0.36460933 0.4062895 -0.30546826 -0.0044421675 -0.20499502 -0.32469717 0.046558157 0.4504999 0.32932684 0.5873457 -0.00046719066 -0.4132135 -0.13875294 -0.5079898 0.011044605 0.25082836 -0.2527618 -0.3341015 -0.13775913 -0.119937494 0.25273678 0.2081328 0.056157116 0.18613905 0.17597175 0.44383386 -0.21421002 -0.41175327 -0.14044109 0.09512711 -0.14209212 0.012551382 0.08419853 -0.18166889 0.26233992 0.5197713 -0.306376 0.052754354 0.2961148 -0.16845284 -0.24182498 0.28717235 -0.1972611
405 -0.14964314 0.22373728 -0.1838975 0.13682415 0.37291625 -0.32141754 -0.05194257 -0.10846754 -0.023060568 0.21609502 0.5370669 -0.23691845 -0.17851508 0.08188684 -0.6443904 0.20256236 -0.33258826 -0.028046627 -0.12466318 0.07696272 -0.16561227 0.4100222 0.39599597 -0.46035352 0.016405575 0.10303598 -0.18877569 0.53529906 0.13455579 0.21070965 0.026421364 -0.13522676 -0.15352654 -0.34604082 0.046540465 0.03239392 0.46926123 -0.7265492 -0.21008003 -0.13656293 -0.07878339 0.48215714 0.09729116 -0.2263933 0.017665997 0.058465518 -0.0776097 -0.53536123 -0.2888123 0.15354675 0.17066292 -0.006061251 0.25644368 -0.029283864 -0.06665874 0.6970815 0.23755878 -0.1253336 -0.29590628 0.28724658 -0.50856996 -0.22064011 0.04511285 -0.029855663
81 -0.23633605 -0.48951083 0.11801188 0.20378159 -0.08621387 -0.42282867 0.11872082 -0.50503457 0.0432673 -0.2733402 -0.122672565 -0.27161402 -0.20237057 -0.009473862 -0.2602779 0.38624588 -0.28200158 -0.16228624 0.023984121 0.13521473 -0.16739419 0.22424635 0.08585845 -0.8276709 -0.037598293 0.26470792 -0.14086835 0.31169492 0.10359211 -0.22058427 0.5203758 -0.3663646 0.04581329 -0.111625336 -0.2550736 -0.12733577 -0.1145862 0.17933749 0.01620796 -0.25140578 -0.12415187 0.13274837 0.119768515 0.20485032 0.56105155 -0.29013914 -0.12357388 -0.26136222 -0.039468553 0.43223453 -0.19579232 -0.13156843 0.36579064 0.39170596 0.14106746 -0.08615495 0.33838934 0.14360307 -0.006309638 0.3842069 0.22191209 -0.15809818 0.21894774 -0.29290846
286 0.17381021 -0.45174214 -0.15539354 0.24413313 0.028765896 -0.5653425 0.34310427 0.104187734 -0.39767888 0.43703857 0.2571069 -0.5244816 0.098361574 -0.0815909 0.048041955 -0.12483305 -0.461723 0.08164998 0.18560667 0.3662348 0.050645918 0.1680281 0.3235464 -0.30291107 -0.30201596 0.017484335 -0.026963752 -0.075334884 0.14014508 -0.17159742 0.11480112 -0.35573074 0.10337443 -0.1895175 0.059075225 0.14170213 -0.06767908 -0.075200185 0.22070305 0.29912573 0.15776007 -0.14607428 0.18665634 0.26434582 0.040766243 -0.16048162 0.3534616 -0.04167736 -0.30143228 -0.18130541 0.48453736 0.33678448 0.3966984 0.08983137 0.15087412 -0.28486425 -0.43002334 0.057392884 -0.3262437 0.0031937151 -0.36725858 0.0046129744 0.8506601 0.010108567
394 0.49315688 -0.10862532 0.09118774 0.13708836 -0.1286194 0.11654832 -0.11158969 -0.14002039 -0.45461604 0.24369733 0.3787378 -0.41659504 0.08924236 -0.13657823 -0.31816357 0.047417313 -0.39164254 -0.22132142 0.17550506 0.18071239 0.20590521 0.21582477 -0.11482298 -0.4148242 -0.025794057 0.11925145 -0.09587158 -0.05476161 -0.062422633 -0.2397709 -0.008529655 0.33365744 -0.11669802 -0.045208503 0.01312456 -0.048265893 0.0770851 0.146873 -0.5389849 0.07707613 -0.45328444 0.3143446 -0.18970856 -0.13226685 0.17192169 0.061356697 -0.018349241 -0.20332707 -0.08123354 0.7014349 0.19012456 0.30002505 0.060082573 0.15287341 0.13033235 -0.04377378 0.09528279 -0.44879103 -0.088924006 0.51936287 -0.50028527 0.1943544 0.38496155 -0.5270585
281 -0.011180439 0.027966673 0.31466985 0.34412462 0.14751525 -0.24951547 -0.14304158 -0.48016077 -0.10602898 0.06335951 0.5855649 0.057057627 -0.006455389 -0.13109648 0.32088983 0.066099524 -0.5098878 -0.0067829695 0.04663636 0.2892421 0.0841413 0.2183203 0.3319194 -0.28095436 -0.2949982 -0.23942325 -0.33897647 0.05991954 0.049889773 -0.085676655 0.20319256 0.07957616 -0.13260125 -0.52043325 -0.36095616 -0.26459268 0.04432336 -0.3427988 0.030106716 -0.44902414 0.470303 -0.59736526 -0.072057106 -0.12142807 -0.061924007 -0.2204519 -0.064533524 -0.21083592 -0.1857876 0.21260388 -0.14435719 -0.14093564 -0.05801295 0.18544984 -0.6343128 -0.28727114 0.12966824 -0.030947274 -0.1588019 0.2677536 -0.22396272 0.055329006 0.15750256 -0.27191502
504 0.3481528 0.141336 0.30798897 0.092863604 0.044373248 0.13454002 0.31661174 0.2460804 -0.14483567 0.21625608 -0.22003636 0.11586843 -0.4986663 -0.156546 0.38826665 0.1581787 0.02402342 -0.5415799 0.2617534 0.43023106 0.415052 0.47416526 0.2799863 -0.6604215 0.16904189 0.07608624 -0.066254914 0.29530537 -0.050585315 0.089067735 0.19446051 -0.05414515 0.061789423 -0.14829478 0.16778117 0.16855635 0.5017129 0.09258856 0.06389079 0.078111954 0.46315837 0.02334793 -0.1575821 0.13528723 0.70574486 0.3542445 0.09223035 -0.3233078 0.038165096 -0.078056104 -0.053575832 0.2275909 -0.059107196 0.14715335 -0.11138649 0.00785203 0.036453012 -0.6020153 -0.63864297 0.13820012 -0.40895265 -0.14434722 -0.2775902 0.025139885
292 0.40258542 -0.32943666 0.051254038 -0.19912127 0.29384422 -0.14493145 -0.0950504 -0.15711962 -0.18234664 0.099163525 0.15750079 -0.48388472 -0.21015011 -0.20344622 0.3056863 0.10930402 -0.34772772 -0.23588072 -0.1495471 0.30357894 0.19134453 -0.12188444 -0.24962531 -0.31429335 0.19387105 0.26962563 0.28587508 -0.50059104 -0.21814746 -0.36580664 -0.31033152 0.086804874 -0.1854285 -0.18244177 -0.2410664 0.015930578 -0.13120665 0.19537489 -0.30809137 -0.015782326 -0.48644137 0.049198765 0.00032833556 -0.06086608 0.41348383 0.19333114 -0.051070705 -0.32292846 0.13632524 0.30090278 0.022588372 0.043928836 -0.2724261 0.19425432 0.14041094 0.03150843 0.045138314 -0.617794 -0.47067383 0.36572805 -0.42779037 0.18158264 0.7117787 -0.5895269
31 0.43370155 -0.5390873 0.10722771 0.17120059 0.016916815 -0.1751072 0.18059945 0.068822324 -0.26612508 0.39917263 0.22339651 -0.25701633 -0.46489063 -0.14736627 0.37394503 0.7713246 -0.18747039 6.558044e-05 0.07594011 0.10921357 -0.106544934 0.21442312 -0.022252968 -0.6281447 -0.06714944 -0.14662682 0.05185758 -0.27738342 -0.37070906 -0.25602636 0.084221184 -0.039265376 0.114295244 0.08348882 -0.58210665 -0.008503308 0.10563743 -0.35330188 0.042683575 -0.14482887 -0.18141508 -0.12989625 0.29005417 -0.52879727 0.34081525 0.051522143 0.0037871136 -0.14313143 -0.31088665 0.118294306 0.1300995 -0.24179196 0.1787485 -0.4305427 0.14855042 -0.15001623 0.2547962 -0.21640532 0.15458277 -0.1391768 -0.035212338 -0.07385335 -0.014249639 0.5138153
457 -0.016992398 -0.48756862 0.2146106 -0.15306239 -0.07057665 0.05822142 0.14667024 -0.08691391 -0.28470713 -0.1492199 0.51595193 -0.114442885 -0.42125902 -0.23163489 0.30129024 0.45717442 -0.1405034 -0.19152844 0.23136976 0.7217029 0.2761119 0.22629942 0.11556486 -0.22018006 0.050780196 0.21097465 -0.3306715 -0.23948555 -0.016121943 -0.037637264 -0.38579103 0.10257671 -0.27017242 0.13962315 -0.120331526 0.24599876 0.19203497 0.077447444 0.64159304 0.21320659 0.14299189 0.83291906 -0.07312554 -0.39242384 0.49880603 -0.2596576 0.075653315 -0.18617347 0.21231495 0.14003682 0.05612864 -0.0010503428 0.17356889 -0.04125917 -0.4363325 0.16619006 0.66083306 0.45121837 -0.0738076 0.08076562 0.00049412623 -0.08937462 -0.09025245 -0.2243146
169 0.055280995 -0.7916347 0.4007891 0.32916763 0.28132248 -0.22506815 -0.033040456 0.21631572 -0.2876791 0.4369181 -0.25006536 -0.114108205 -0.22430766 -0.26444042 -0.015532456 0.32321846 -0.4510105 0.0048773163 -0.21753538 0.16886897 0.08637425 0.2331173 0.16177785 -0.5246605 0.06185605 0.17855807 0.17145705 -0.038913485 0.1331486 0.19695075 -0.02327042 -0.20808269 -0.4651503 -0.33499783 -0.08001836 0.047063444 0.21690053 -0.29022625 0.099325754 0.25334463 -0.24134755 -0.3536809 -0.1660916 0.018231144 -0.0676984 -0.13578144 0.03283013 -0.05147237 -0.08732721 -0.03347918 -0.24865468 0.7188947 -0.092670396 0.083866656 -0.099475704 -0.42067495 -0.30732378 0.045343302 -0.21307646 -0.31931067 -0.50609046 -0.041435994 0.37868693 0.01901541
362 0.1802725 -0.25809395 0.15545096 0.37820914 0.15364401 0.34941235 0.38884073 0.3239805 -0.629023 0.006762163 0.25255516 -0.1345016 -0.2765756 0.15826112 -0.10146701 0.21187054 0.20150226 0.073506445 -0.11649873 0.4030918 0.42216358 0.6153353 -0.14279054 -0.33198792 -0.23739146 0.22772786 -0.05875103 -0.19998696 0.11477734 -0.035972115 0.1385174 -0.16758743 0.10325131 -0.10715211 -0.14956778 -0.17558362 0.10502651 -0.27288172 0.08018274 -0.4773006 0.4993144 -0.08134115 -0.0066995756 -0.31054264 0.70724046 0.1481516 0.026323782 -0.27285737 -0.17915258 -0.092754364 0.07421503 0.031010902 0.041880112 0.051983565 0.009563489 -0.15978323 0.31258366 0.030631319 -0.39073038 0.047966905 0.04625716 -0.24046578 -0.040320586 -0.11505797
42 0.34160674 -0.36506942 0.04917867 0.5175522 -0.37596956 -0.25715405 -0.2289012 -0.4276765 -0.1742447 0.29900935 0.007486904 -0.08232401 -0.3541473 -0.05289761 0.104057856 0.36619484 -0.3778358 0.094481975 -0.35564113 0.21404369 0.042158853 0.30855948 0.027294662 -0.3261122 -0.37868738 0.20160428 0.352205 -0.1358547 0.0022405102 -0.24777369 0.17199259 -0.2937796 -0.28491768 0.07606614 -0.13093014 0.22192761 0.5647275 -0.3379063 -0.047054004 -0.205118 -0.08187137 0.31786606 0.09596508 0.048973832 0.018457977 0.31612557 0.044807594 -0.0021025075 0.19675 -0.0633216 -0.08783734 -0.30603716 -0.11569772 0.14201957 0.42797643 -0.005426605 -0.04720702 -0.1374413 -0.16638607 0.08558962 -0.38644966 -0.34669638 0.10671149 0.17383969
52 0.2317539 -0.40903383 -0.018126614 0.33852097 -0.02432413 -0.4545478 -0.19716823 -0.021875184 -0.067712784 0.004919567 0.28184268 -0.35153815 -0.044157863 0.11858833 0.6610561 0.36095622 -0.520753 -0.17273721 -0.32353532 0.10853485 0.14422755 0.24359187 0.24017179 -0.23879546 0.18867634 0.3402239 0.16759951 -0.4345707 0.09367936 -0.18907242 -0.22328284 -0.17328201 0.34407845 0.22331809 0.030414972 0.3508599 0.37357095 -0.18003213 -0.16621988 -0.3339883 0.2447772 0.18302104 -0.045261364 0.1688847 -0.057536967 -0.04315952 -0.15863633 -0.35162878 -0.46638593 0.0075848633 0.2239882 -0.2804761 0.26209918 -0.08184092 0.1833744 -0.29105207 0.07843931 -0.034430686 -0.37632558 0.0015623639 -0.59777755 -0.24916942 -0.13419423 0.591681
47 0.11983373 0.31074527 0.15949754 0.09955032 0.32639185 -0.2198298 -0.16381556 -0.0477747 -0.31468284 0.21895966 0.10568299 -0.53781873 -0.010697235 -0.4095484 0.3340093 0.1661536 -0.4090895 -0.0411529 -0.11632386 0.31832165 -0.02819843 0.046763882 0.22223884 -0.570145 -0.022619579 0.07991449 -0.3623922 0.22137395 0.26033756 0.10495895 0.34348732 -0.2333551 -0.37058938 -0.023644963 -0.7199475 -0.18267904 0.14844228 0.054184645 -0.17615405 -0.119872 0.11970953 -0.10156656 0.2282689 0.033463776 -0.049439143 -0.13529128 0.45991418 -0.43562558 -0.27922937 -0.40836468 0.04367245 -0.07829302 -0.19435321 0.080743864 -0.02926386 -0.009012526 0.39602757 -0.05448288 0.17503472 0.47406155 0.11486872 -0.14255941 0.40879062 -0.037086535
439 0.27780178 -0.018967116 0.3839276 0.17653272 0.519771 0.2527136 0.21124473 -0.012118583 -0.3538901 0.48598063 0.39598653 0.06874102 -0.50935 0.19312517 0.30677956 0.094418235 -0.07548336 0.05611514 0.011405067 0.6794567 -0.1256284 0.06555026 0.26626468 -0.3690707 0.19124895 0.024850791 -0.26032016 -0.51527786 0.33433965 -0.22653727 0.04638354 -0.055983722 -0.69795644 -0.1814238 0.14499347 -0.2753991 0.35457516 -0.30701435 -0.007043108 0.035533547 -0.3626441 0.1895449 -0.17664579 0.31618217 0.09627976 -0.018285675 -0.32086763 0.24922189 -0.17668802 0.25845677 0.06526039 0.20547813 -0.0060728793 -0.3736787 -0.24792293 -0.47554925 -0.17417996 0.026267571 -0.52594143 -0.14391936 -0.30700725 0.19344676 -0.120675065 0.38300306
189 0.12695745 -0.029503295 0.013702899 -0.03307148 -0.2360047 -0.37590048 0.35070875 -0.08081108 0.10971566 -0.074921645 0.06120995 -0.56553894 -0.14932294 -0.1884588 0.045907475 0.20566235 -0.12715858 0.288903 -0.21849625 0.44070867 0.059217285 0.37305754 0.14823514 -0.5415653 0.04363658 0.53195375 -0.5802968 0.10914691 0.13331403 -0.21039961 0.041611876 0.06017568 -0.17469032 -0.23891926 -0.18421909 0.42836308 -0.27706358 -0.1726797 -0.20055151 0.15620112 -0.1331259 0.1719547 -0.08305682 0.062934235 0.49071705 -0.25688407 0.15705936 -0.73297924 0.4709248 0.20328093 -0.024421643 -0.042458177 0.3458694 0.052857053 0.19000384 -0.32727137 0.29290807 0.27144897 -0.22820577 0.028822752 0.18449982 0.3730979 -0.076626435 -0.44412577
156 0.11248769 0.3701294 0.040307496 -0.05639432 0.10299057 -0.49568844 -0.5418973 -0.16320316 -0.31652164 0.080666706 0.32180205 -0.5545436 -0.108049974 0.059107162 -0.1792928 0.29924065 -0.32804093 0.13643847 0.24439798 0.4802263 0.18739356 0.13894817 0.18572079 -0.13062045 -0.085629426 0.13950782 0.39636573 -0.25377735 0.104624525 0.12417212 0.24220058 0.1730509 0.1568023 -0.367236 -0.5117853 -0.2602109 -0.19322477 -0.11790265 0.42152637 -0.009617614 0.3128448 0.1517788 -0.40100357 -0.2145975 0.03589681 -0.31497052 0.25395828 -0.6602713 0.13464321 0.51957566 0.6655047 0.19308783 0.4507241 -0.038176756 0.2861385 0.01757278 0.08332807 -0.15743893 -0.12841374 0.23774032 0.016182346 0.23577622 0.06662611 0.08891906
472 0.03185784 -0.21389078 -0.21807876 0.13336916 0.11442608 -0.23615406 0.06489662 -0.11013461 0.1121245 -0.39135164 0.29002085 -0.19002931 -0.39211765 -0.09169392 0.16280825 0.17574334 -0.16337954 0.055559795 -0.07232714 0.18918708 0.121425204 0.7730341 0.3081082 -0.41278848 -0.14302894 0.23451103 -0.1506851 -0.18860558 0.15922382 -0.34961912 0.2579406 -0.15889996 0.18639714 -0.11384291 -0.2672065 -0.012619015 -0.11576529 -0.17548917 0.0060848533 0.040190883 -0.24036123 0.4333563 0.27320322 0.063182384 0.43694204 0.20213422 0.008841713 -0.11734987 -0.44158372 0.07577983 0.3107586 0.45199376 0.22284931 0.17315634 -0.4429715 0.18034372 -0.16754402 -0.3489784 0.35348976 0.10922998 -0.42770934 -0.22140639 0.33020213 -0.13145477
291 0.22390318 -0.16746092 0.11633364 0.33171833 0.37341896 0.055127766 -0.009069577 -0.21121451 -0.44570306 0.4519969 -0.103357695 -0.22254248 -0.19062905 -0.12617008 0.14469254 0.36376396 -0.29917848 -0.79435855 -0.023657197 0.2676321 0.23359787 -0.007947374 -0.38206685 -0.40241566 0.051450554 0.08887366 -0.3308373 -0.3982411 -0.028523514 0.0004881855 -0.4406502 -0.009655688 -0.29814833 0.07760964 -0.19381464 -0.13159949 0.1278265 -0.04348452 -0.27045733 0.06069773 -0.28898495 0.24728395 -0.14576304 -0.012657193 0.07383111 -0.244339 -0.1772005 -0.316764 0.2930958 0.7695024 0.027697908 0.3867163 0.14380729 0.071969405 0.043481488 -0.022037791 0.25776747 -0.21604437 -0.17004241 0.19786894 0.11409497 -0.058123693 0.5981274 -0.59510887
174 -0.30738896 0.37204778 0.12069927 -0.14547738 0.064121075 -0.34450135 0.12868614 -0.08432637 -0.22771731 0.28687093 0.3600836 -0.49328893 -0.26041773 -0.14452836 -0.37384352 0.3459705 -0.45790344 -0.2113371 -0.11614181 0.252817 -0.022882568 0.44002947 0.1692776 -0.48847896 -0.28936985 0.13744228 -0.026539091 0.06716701 0.040357303 -0.32931525 -0.08422261 0.003291353 -0.1105324 0.36281314 -0.29332617 -0.087531365 -0.19687264 0.08361565 0.029084438 0.06394241 0.15831608 0.18041922 -0.13099843 -0.007392453 0.4729286 0.45765594 0.2045575 -0.29325035 -0.073551826 0.3520306 -0.008343453 0.24833257 0.013320676 0.20665301 0.06479081 -0.42235875 -0.21840298 0.074815735 0.1883315 0.06709535 -0.50662667 0.110972784 -0.03114861 0.36453208
18 0.095109835 0.19981866 0.097909585 0.21398689 -0.021185465 -0.27377754 -0.13868447 -0.5612781 -0.23050398 0.6052572 0.33784038 -0.110588655 -0.03351216 -0.6089394 0.19810063 0.29102817 -0.06994031 0.16414677 0.2282901 0.35260168 0.23894383 0.4391424 -0.05652317 -0.049913313 -0.07890022 0.30706382 -0.3452016 0.12852131 -0.16563095 -0.21581982 -0.006092024 0.16056897 -0.025026023 0.45382744 -0.047227964 0.23507059 0.0885382 -0.0108124325 -0.10746106 -0.25434202 -0.20646904 0.5245206 -0.23433809 0.075974636 0.37613675 -0.22154151 0.13082762 -0.30163324 0.12067147 0.40518224 0.13036734 -0.10137144 0.3868858 0.065776594 -0.18917134 0.06683056 -0.13497487 0.1887512 -0.13091946 0.05587594 -0.51918334 -0.053356376 0.24317357 -0.12277054
208 -0.28873095 -0.039812133 0.39909422 0.026539454 0.028452225 0.33644578 -0.11587866 -0.21241935 -0.16780555 0.05960814 -0.08115171 -0.1081056 -0.21856932 -0.29781783 -0.0005946602 0.1594534 -0.3742645 -0.2051944 -0.2001681 0.293445 0.3422592 -0.08120492 0.36501494 -0.5985439 -0.20121583 -0.2545606 -0.33157983 -0.15702957 0.14850742 -0.34097412 0.40368235 0.12746128 0.109669425 -0.46302134 -0.4098802 0.11007155 0.41637355 -0.19801341 -0.17030394 -0.41157445 -0.03383691 -0.22667973 0.0019184588 0.07662741 0.39549747 -0.24778353 0.53840584 -0.26419896 -0.2852116 0.09230792 -0.10600086 0.4800345 0.11517797 -0.039101038 -0.16418085 0.35440627 0.051156417 0.010873414 0.0031075077 0.5165428 -0.014100012 0.16638292 0.13923681 0.10528783
36 0.3143875 -0.35336274 -0.030801762 0.38763073 -0.2909387 -0.18036184 -0.00032903274 0.1401464 -0.24896264 0.13096394 -0.07440132 -0.18321493 -0.25734398 0.1600837 0.065070696 0.45183042 -0.18844372 0.08814371 -0.07063818 0.317124 -0.14802592 0.17151222 0.111170575 -0.91312003 0.038687475 0.0239341 0.050490305 -0.2922711 -0.45254785 0.08039327 0.05647822 -0.098298766 0.08459626 -0.40160066 -0.49024475 0.10066182 0.08370827 -0.37869662 -0.015998797 -0.0749349 -0.22128114 0.1380712 0.33189327 -0.6821003 0.29002592 -0.24988984 0.034317035 -0.09119513 -0.17289045 0.04650363 0.26916885 -0.18235198 0.06805244 -0.02183029 0.14930971 -0.2510458 -0.0063004796 -0.0595777 -0.06244878 -0.20657857 -0.37582684 0.020543456 0.12820353 0.43796578
153 -0.020595724 0.048484374 0.13718039 0.4338203 -0.080669895 -0.26986486 0.1874804 0.11121791 -0.646263 -0.06333784 0.47545734 -0.08074773 -0.08563678 0.28447405 -0.23038574 0.4437233 -0.56115663 0.14038664 0.10591077 0.07027783 -0.098132156 0.18530235 0.3213696 -0.810289 0.25520155 0.49816525 -0.028499972 0.24816951 0.026642889 -0.4393376 0.19184715 0.049561117 -0.12167027 0.3920011 -0.34880632 0.18333188 0.0030893341 0.09741607 0.54077995 -0.15891407 -0.08958879 0.3514152 -0.15097246 -0.10221758 0.11560807 0.12901193 0.016078053 0.16531107 -0.0851378 -0.33865935 0.06601478 0.11590295 0.3751341 0.022265788 0.08776201 0.3715528 -0.20097925 -0.1918235 -0.10363806 0.42386037 -0.0005593498 0.3594069 0.29916167 -0.32381743
516 -0.10739097 -0.072578795 0.4346623 0.1962243 0.011899456 -0.061785717 -0.046047263 0.1835332 -0.29674363 0.21297643 0.43930963 -0.061520647 -0.078051 0.09868568 -0.05183475 0.5522192 -0.31617445 0.09203144 0.23800156 0.22635804 -0.09153848 0.17220092 0.47074497 0.077594995 -0.19032761 0.37478217 0.009657878 0.24960794 -0.20356332 -0.41579327 -0.3255269 0.058425754 -0.1943726 0.050888546 -0.60426754 0.06842055 0.0889244 -0.50511974 0.3348641 -0.1050031 0.12817901 0.20931911 -0.16432129 0.3071574 0.44872856 0.09762612 0.1591618 -0.43952796 -0.114521824 0.33565435 -0.24092877 0.14813031 0.052145552 0.28883192 -0.3129204 0.063416496 0.18085574 -0.22497378 -0.08281012 0.27104157 -0.021691099 -0.0217291 0.43631166 -0.21376878
454 0.21261935 -0.63325924 0.12346642 0.34189412 -0.575521 -0.5099889 -0.302439 0.16627264 -0.18236731 -0.18536094 0.23427875 0.35348588 -0.44255006 -0.33698326 0.2341844 0.36192298 -0.4515754 0.14390375 0.041570477 -0.10955573 -0.08823805 0.1535508 0.4676579 -0.60157907 -0.36610875 0.13472714 -0.34781715 -0.06731651 0.2320955 0.22752425 0.020721912 -0.08888698 0.11955159 0.023588711 -0.30859372 -0.16447736 0.346717 -0.15003623 0.007382564 -0.26137465 -0.037624836 -0.06924369 0.43781623 -0.34875616 0.016637957 0.029541612 -0.10563606 -0.40808702 0.29447263 0.06339877 0.31818962 0.089797996 -0.27784276 -0.071168 0.006689699 -0.07361805 0.23270541 -0.2527464 0.014817154 -0.26255003 -0.23907362 0.14429076 0.51071626 0.37802514
181 0.46555275 0.021731596 -0.16752775 0.5544225 0.20070979 0.15719123 0.061402533 -0.12547204 -0.33349767 0.15367226 0.63613355 -0.16496848 -0.10656123 -0.44503126 0.07944001 0.21228975 -0.0020229018 -0.035392243 0.02695577 0.06053086 -0.53314656 0.2449376 0.3177699 -0.23043361 -0.19274805 0.24635728 0.3178633 -0.32675293 0.09120643 -0.15534846 0.099780425 -0.03366452 0.15853302 -0.20082305 -0.16675244 0.13771309 0.11852949 -0.21470241 0.055610355 -0.15806136 -0.4391838 0.24711579 -0.26399586 -0.3122854 0.35664418 -0.1949047 0.039309353 0.28701675 -0.11946478 0.31420824 -0.17966738 0.1413183 0.057584237 0.25179353 0.15249139 0.25371078 -0.44698066 -0.23721522 -0.7340823 0.31903642 -0.48244545 0.1885196 -0.08087052 -0.2832374
90 0.05098952 -0.017180488 -0.018463977 -0.042949848 -0.1737832 -0.05501077 -0.38423648 -0.12966302 -0.2884108 -0.33340433 -0.04894786 -0.1318568 -0.37976086 -0.17161153 0.2684826 0.015380714 -0.36933032 -0.011126976 -0.44308063 0.08322271 0.012205487 0.4385629 0.26864973 -0.4804838 -0.49148858 -0.3246219 -0.39530182 0.21514444 0.46500075 -0.07352353 0.37960213 -0.23850411 -0.35479528 -0.01583636 -0.72126627 -0.42178446 0.24271494 -0.061374683 0.31892812 -0.37691373 -0.012367767 -0.26311266 -0.025166826 -0.14199212 0.020967372 -0.07961317 -0.2213325 -0.11166202 0.30208665 -0.005661282 -0.05858577 -0.10278705 -0.321506 0.043402232 -0.28141326 0.11311669 0.016572466 -0.14709255 -0.3740456 -0.23159282 -0.5667424 -0.12239972 0.40876362 0.07304392
376 0.15059806 -0.5456095 -0.002042183 0.32783154 -0.24002764 -0.11238121 0.35961586 -0.08977465 0.15051983 -0.48852625 0.22540945 -0.45545572 0.10131198 0.10384232 0.26556528 0.24424207 -0.19800203 -0.14270188 0.03260021 0.06980964 0.19215405 0.5297517 0.3924169 -0.90499026 -0.31385964 0.041607164 -0.3473983 -0.039771862 0.38513988 0.15285 0.37314898 -0.4695285 0.033576716 -0.09677387 0.021398786 -0.44109395 -0.25501448 -0.0384313 -0.27772298 -0.2943175 -0.17800803 0.1983786 0.013227995 0.37960348 0.31193683 0.22883883 -0.03621236 -0.053722028 -0.27736497 0.2533946 0.24662873 0.12311026 0.5164617 0.30251276 -0.06593782 0.096123666 0.22603811 0.1768739 -0.024022302 0.11914442 -0.28127208 -0.14584981 0.32859278 0.10831137
835 0.13246913 0.049692564 0.34055784 0.42049363 0.22655563 0.13463317 0.08837303 0.06888449 -0.86727005 0.051552117 0.30593053 -0.20978731 -0.65312684 0.0064088423 0.17368801 0.21762857 0.26107815 -0.123565964 0.4938412 0.08659177 0.1930673 0.50779206 0.12916233 -0.21778204 -0.27979735 0.037709884 -0.094352394 0.088566 0.02060385 -0.0093039125 -0.061638046 -0.03417213 0.067653455 -0.023417776 0.09008233 0.27674338 0.466456 0.21432449 0.0442737 -0.09767462 0.33856803 0.12934043 -0.1436213 -0.27844608 0.693892 -0.18496136 -0.30567536 -0.40551725 -0.20776911 0.08165322 0.19731455 0.36506903 0.24561752 0.19851814 -0.020519651 -0.20299532 -0.03430952 -0.33593348 -0.27457678 0.14056304 -0.06348017 -0.30098927 -0.08299508 -0.0020469206
175 0.43833408 0.45233196 0.10081009 0.069297664 0.08362455 -0.42917594 -0.08754243 -0.5228583 -0.33246166 -0.0782432 -0.07576199 -0.38724276 -0.098956354 0.17766444 -0.13931848 0.2557735 -0.6546852 0.17412665 -0.01634665 -0.051793862 0.044728983 -0.027298577 0.15377705 -0.48590586 -0.24189815 -0.37765303 -0.22562733 -0.2610984 0.07111473 -0.18162265 0.040822927 0.023304516 -0.3143092 -0.29846254 -0.24947466 -0.18027617 0.23888282 -0.03903447 0.15188652 -0.2615517 0.13853829 -0.3757908 0.054438014 0.2550399 0.5646003 -0.36089197 0.17612368 -0.16931489 -0.11300295 0.3372881 -0.09302187 -0.44593814 -0.1943342 0.024599958 -0.27936178 0.15063143 -0.16147085 -0.3439456 -0.26648957 0.46579263 -0.06797429 0.045972127 0.6022479 -0.17751695
49 0.3492593 -0.18061711 -0.29847878 0.3647596 -0.55796874 -0.44956467 0.15357473 -0.06397827 -0.4268119 0.34935802 0.22654001 0.50565237 -0.04308879 -0.29179397 0.19380026 0.5043521 -0.54916483 0.27879897 -0.12244555 -0.11849543 0.1975451 0.17611371 0.2074576 -0.52861595 0.10686006 0.1548393 -0.32158244 -0.041158825 -0.044689946 -0.10706167 0.23083143 0.1089208 0.01668635 -0.060404018 -0.5832065 -0.38475105 0.33302882 0.11241548 -0.083107576 0.013138803 -0.31534097 -0.06211989 0.7451633 -0.3781708 0.3094391 -0.012505381 -0.44327065 -0.3712901 -0.124918334 0.046153463 0.2314744 0.43559542 -0.33370847 -0.013048115 0.11544643 0.16436386 0.16198243 -0.1802345 -0.20585155 -0.2267504 -0.13240425 0.29452088 0.17692105 -0.023640284
15 0.086636566 -0.64503807 0.075438924 0.54173756 0.05251956 -0.14479896 0.07417443 -0.13304041 -0.4838593 0.45320192 0.16202445 -0.16313328 -0.05713538 0.27579427 0.017972954 0.027863694 -0.34979215 -0.057031803 0.053851526 0.38852137 0.0131688975 0.23602326 0.21884535 -0.06769791 -0.043097813 0.34800452 0.035263184 -0.24016896 -0.048964098 -0.30387753 -0.42856216 -0.10784023 -0.11371077 -0.43973148 -0.0729587 0.010143891 0.45797157 0.51884216 0.010971365 0.20370692 0.08561632 -0.12105961 -0.2786122 0.08383183 -0.082758255 -0.22117192 -0.10191947 0.08178106 0.007735795 -0.018842023 0.22057694 0.04812411 -0.072726555 0.11624449 0.0518718 -0.39180297 0.4506481 0.06140472 -0.5933774 -0.039023187 -0.688108 0.19088334 0.36413255 0.12960288
269 -0.15922754 0.19448128 0.46268016 0.24183168 0.46449435 -0.0070286985 -0.1592782 -0.08443741 0.13978994 -0.15000466 0.39576587 -0.38550624 -0.021729864 -0.08039934 0.118942246 0.017735707 -0.08177596 0.13156654 -0.081260495 0.11309514 -0.019347303 0.03995877 0.38077423 -0.6197875 -0.34391898 -0.2770831 -0.50887483 0.15727971 0.042503748 -0.21447912 -0.1256244 -0.033668015 -0.37305003 -0.01790027 -0.86468786 -0.107758835 0.36339876 -0.3176302 0.26718208 -0.1735904 0.15398642 -0.4151932 0.23342413 0.10195066 0.18388435 -0.07964741 -0.10591606 -0.19364984 -0.2668823 0.28980893 0.35663366 -0.1955882 -0.187465 0.2713615 -0.17280442 0.08103943 0.10812972 -0.10643533 -0.3967056 -0.048489463 -0.19667561 0.1811315 0.23446132 -0.15458396
4 0.39755717 0.15740138 0.11254874 0.0065689045 0.26342192 -0.38256717 -0.31813073 -0.0032745814 -0.09959811 -0.22074765 0.15093866 -0.3375187 -0.10130715 0.15410216 -0.061296552 0.017378211 -0.37821886 0.023165777 -0.08727015 -0.047733013 0.22161087 0.119689465 -0.11393066 -0.58364856 -0.34036914 -0.22853298 -0.7243167 0.10215763 0.14843048 -0.15616159 0.2942813 -0.24141057 -0.26822117 -0.12209065 -0.26104543 0.01984162 0.26178065 -0.19950606 0.3592521 -0.17240237 0.10833905 -0.13860103 0.10448572 -0.14885266 0.2957541 -0.12043389 0.18966646 -0.54713106 -0.13563098 -0.0101598445 -0.12886544 0.06340125 -0.011339306 0.2638345 -0.12871414 0.10632546 -0.4092249 0.15226129 -0.48109215 0.56311065 -0.087434806 0.45613325 0.035544544 0.07967091
449 0.23278758 -0.6650372 0.4453875 0.27759624 0.36952397 -0.28116825 -0.06957334 0.16562118 -0.2317818 -0.018424192 0.04510589 0.02208553 -0.12445133 -0.26654083 0.15781265 0.2720522 -0.3261396 0.11559275 -0.3518163 0.7357643 -0.30563414 0.34529182 0.15834239 -0.30259016 -0.004250032 0.36218223 0.106502004 -0.13264485 0.22807226 -0.19520701 -0.04373109 0.0067191785 -0.37826738 -0.27096963 0.121518806 0.299216 0.10725046 0.008240366 -0.04442108 0.04410719 -0.3031641 -0.02162459 -0.12978578 -0.53316677 -0.04238223 0.24171838 0.015351158 -0.3707195 0.16493197 -0.0692223 -0.088371806 0.07473123 -0.18421398 0.07074502 -0.4346597 -0.003925006 -0.5094074 -0.07375515 -0.16255426 -0.026164513 -0.22515133 -0.08159525 0.22866514 0.039509583
41 0.09296013 -0.25188076 0.09165708 0.046350718 -0.8056394 -0.40058053 -0.15127827 0.34400383 -0.1976915 0.6020544 0.29301772 -0.13138054 -0.29189956 -0.14478375 0.5595992 0.43481117 -0.15749104 -0.001865737 -0.06316503 0.27997717 -0.1219955 0.064720325 0.22582205 -0.8523016 -0.3134299 0.31429556 -0.1700292 -0.0538887 -0.23083809 0.20530018 0.053797096 0.02349086 0.09322576 -0.21052201 -0.30485737 0.19087797 0.2108053 0.0021648637 0.109631 -0.23587635 -0.47905084 0.11557299 0.5461772 -0.3720058 0.2530401 -0.1493701 -0.09843184 -0.08186719 -0.24108571 0.3078552 0.40826702 -0.1296896 -0.17852546 -0.3437404 -0.1668099 -0.02464572 0.18482172 -0.22329311 -0.14234053 -0.32131773 -0.5918456 0.104261294 0.055725798 0.4083201
28 0.6110659 -0.61821 0.027932324 0.15624437 -0.2994322 -0.15222406 0.011317773 0.030723218 -0.43148437 0.21712843 -0.05306677 -0.38832423 -0.39310175 0.1965949 0.2922845 0.64997226 -0.423173 0.056379557 0.11302684 0.11093153 -0.19745389 0.29430684 0.2535329 -0.8965498 0.0044130096 0.08858532 -0.10219941 -0.2772287 -0.38671342 -0.05285788 0.14262989 -0.22088438 0.07400204 -0.11818271 -0.6455081 0.31157368 -0.024524098 -0.26962596 0.043894853 -0.14467095 -0.14931963 0.05344543 0.18385962 -0.37468666 0.10417911 -0.1882089 -0.05238049 0.005038291 0.03183955 -0.03803054 0.15704457 -0.3044255 -0.067480005 -0.37732977 0.06098761 -0.18174286 0.12889983 -0.33611476 0.15210803 -0.49151957 -0.28387284 -0.018825535 -0.025792856 0.3914392
416 0.40422672 -0.3457188 -0.20627494 0.41415513 -0.4267962 -0.5426344 -0.0048527285 0.30827647 -0.09699357 0.3680376 0.02760921 0.2589087 -0.19978146 -0.23767836 0.2762145 0.35137188 -0.3485382 -0.13118395 -0.017915437 -0.16560744 -0.24770032 0.40440863 -0.06788431 -0.7580043 -0.11358608 0.31004623 -0.28668445 0.024351941 -0.079175614 0.09371993 0.22921036 -0.100311555 -0.021727217 -0.049091857 -0.37027004 0.031487986 0.63812464 -0.17780083 -0.19700001 -0.1878808 -0.13386154 -0.06551875 0.29015782 -0.24138226 0.11235671 0.1482396 -0.15671816 -0.040071152 0.031491917 0.25899437 0.11203796 0.1364972 0.110175155 0.07983091 -0.27179265 0.15348877 0.3075385 -0.11221581 -0.0092829 -0.27007368 -0.23478577 0.025074484 0.27982944 0.38956392
420 -0.17954041 -0.48982456 0.6963598 0.18337706 0.3966303 0.16001774 0.14357516 0.16420528 -0.4626258 0.3133209 0.40146703 0.0009176255 -0.47018787 -0.10549852 0.3098659 -0.17065135 0.43307117 -0.18890241 0.3686932 0.2145116 0.5275694 0.4012866 -0.16649392 -0.72898215 0.050971862 0.3304701 -0.016915914 0.18894988 0.34854147 -0.23228116 0.31930465 -0.20894845 0.049230862 -0.23889449 -0.14965022 -0.045402575 0.12386004 -0.060643625 0.4019908 -0.08149021 0.56496173 0.39993405 0.17333965 -0.012947376 0.4220366 -0.055388115 0.1696997 -0.09545821 -0.062760636 0.15254329 0.1288717 -0.09010022 -0.13352914 -0.113063835 0.24620843 -0.42630172 0.449132 -0.6256999 -0.09959845 0.02809317 -0.254333 -0.0247206 -0.28879437 -0.4165813
335 0.56606984 -0.38354412 0.01071677 0.14724855 0.054672062 -0.50087726 -0.035641782 0.10932721 -0.23575068 0.02417695 0.086194515 0.13926394 -0.06862492 0.09680047 0.5315197 0.35275275 -0.38633794 0.09028322 -0.032965034 0.07787224 0.21791615 -0.101451665 0.29545888 -0.74024796 -0.37495008 0.16768005 0.13185318 0.26129803 0.26572466 0.023662154 0.31652242 0.079848796 0.3101531 0.06619519 -0.30340198 -0.0511032 0.32509148 -0.28164592 -0.17116353 -0.29831752 -0.47730398 -0.27849388 0.024050636 -0.5198119 0.35827562 0.053850863 0.10611155 -0.26723337 0.023938373 0.18668236 0.15846783 -0.03260994 -0.10774226 0.08383323 0.18073317 0.0014371325 0.036832213 -0.30297348 0.09625498 -0.23026912 -0.113584146 0.14537512 0.3666367 0.2576538
158 0.64884543 -0.13279471 0.34501943 0.4441656 0.17099835 0.20961332 0.008092223 -0.14507742 -0.25617066 0.13995785 0.11399631 -0.2710767 0.15310755 -0.21109082 0.04114489 0.006221143 -0.23779117 -0.45573595 0.12224655 0.0009411246 -0.02835339 0.032004148 -0.28478327 -0.26880604 0.1634995 0.4815687 0.20359209 -0.5705261 0.44177568 -0.05547446 -0.05356406 0.09327533 -0.33766562 0.13287696 -0.37807676 -0.33463725 0.10447585 -0.12867324 -0.33200172 -0.07161437 -0.47472155 -0.011978193 -0.16031477 0.105491154 0.32309288 -0.3554213 0.26505548 -0.040695176 -0.11914185 0.50111514 0.22813915 -0.20001504 -0.09733922 0.11331461 0.17052504 -0.23340844 0.07732575 0.026433885 -0.6071588 0.57421577 -0.5725644 0.26914516 0.38489625 -0.5575634
507 0.29098082 0.010001945 -0.0525472 -0.3004782 -0.24539047 -0.39293796 0.58717567 0.13434525 0.061513994 0.35216975 0.26852265 -0.36012185 -0.49753785 0.120841 -0.16469917 0.26432735 -0.47366554 0.2355398 -0.11303197 0.23789743 -0.0030284657 0.27421212 -0.166338 -0.35858676 -0.16234499 0.646852 -0.5603494 0.14333422 0.2655687 0.19664378 -0.13305286 -0.09972049 0.21775484 0.03617554 -0.52216554 0.14911526 -0.27169684 0.075396426 0.03531814 0.2863881 -0.2661747 -0.042159703 -0.037805274 -0.29542708 0.860682 0.10165007 0.113885246 -0.5026726 -0.090325564 0.2744934 -0.1359522 0.0692738 -0.077968225 0.40840378 0.15891175 -0.08030728 0.016125867 0.35130653 -0.2542585 -0.05996949 -0.1740676 -0.4547854 0.019589597 -0.15232393
109 0.18775737 -0.098036885 -0.22480178 0.010023181 -0.20602639 -0.3312162 0.32853702 -0.29496884 0.22012076 -0.3723585 0.41261217 -0.57736284 -0.052306276 -0.007080358 0.37504697 0.36309263 -0.36792487 0.019893864 -0.10438744 0.3075615 0.63335365 0.6162846 0.25869402 -0.39741474 -0.02000781 0.3691543 -0.2253749 -0.28170088 0.5311735 -0.04352037 -0.24657603 -0.29076338 0.24872392 -0.37785587 -0.55794257 -0.16847685 -0.29230064 -0.27101657 -0.011689554 0.40129608 -0.13874581 0.13000262 0.38210657 0.43315893 0.17333321 0.11387775 0.20897132 -0.1145972 -0.29462704 -0.0937299 0.5686979 0.5226567 0.3567749 0.12939353 -0.448496 0.070516266 0.36957234 -0.24346955 0.14917669 -0.0847132 -0.44844025 -0.33605245 0.14354287 -0.19055177
30 0.4093685 -0.4398925 -0.2742818 0.37119862 -0.48478264 -0.09625231 0.14986654 -0.01571353 -0.3362723 0.27120578 -0.29810855 0.012160702 -0.14367802 0.24045008 0.18469614 0.7962107 -0.17892043 -0.06384723 -0.21688873 0.39401683 -0.0034574585 0.22058077 0.06316632 -0.8823944 0.14817977 -0.014567492 -0.11929505 -0.17039497 -0.15208942 -0.1559835 0.037952334 -0.100239016 0.19021279 -0.19647314 -0.470076 -0.004611589 -0.060613796 -0.4346338 0.06261731 -0.036420763 -0.081898056 -0.0693295 0.16767733 -0.63209707 0.2343158 -0.2605558 0.022302503 -0.29069442 -0.23903218 0.10617983 0.40649283 -0.14838187 -0.047328312 -0.21867414 -0.11242377 -0.1772347 0.44768304 0.06792107 0.00853624 -0.27950123 -0.3644994 0.019116547 0.02382922 0.19815843
222 0.008645498 0.05161408 0.38034883 0.08291579 0.23987132 -0.16736045 -0.10065664 -0.32732812 -0.15140964 0.42015845 0.046989877 -0.26398548 -0.31196886 -0.093652934 0.42701927 0.1269426 -0.11412393 0.07105181 0.17885743 0.3258897 0.12337813 0.38626233 -0.009314989 -0.2511612 0.2173962 0.5054815 -0.51346874 0.20225008 0.1304977 -0.13190834 0.014817143 -0.022781774 -0.06831244 0.11215875 -0.14717971 0.1983051 -0.009535686 0.046430394 0.08797186 -0.3154507 -0.16585429 0.31511483 -0.0351666 0.09368201 0.6348402 -0.20974702 0.16581924 -0.25714177 0.6660454 0.13472909 0.14924753 0.0066604046 0.46808848 0.3288368 0.032843456 0.028180363 0.27005866 0.45730674 0.07545355 -0.055145312 -0.31339934 0.062365126 0.19672936 -0.3618155
94 0.33062157 -0.82606953 0.4387785 0.28105554 0.22321981 -0.3173856 0.060468283 0.07087084 -0.20661497 -0.08551474 0.12461278 -0.37304056 -0.0602969 -0.113960505 -0.027390284 0.5583724 -0.66122305 -0.12074479 -0.47921517 0.07852085 0.17139995 0.17423241 0.1562343 -0.07787067 -0.22609971 0.2307479 0.011855847 0.069100834 0.3371655 0.2176315 0.2661579 -0.13313673 -0.09367597 -0.19878052 -0.380948 0.24444155 0.28448814 0.14348313 0.015747424 -0.12316771 -0.14140968 0.13616757 -0.06392013 -0.02561694 0.07444682 -0.35047272 -0.08673664 -0.07310198 -0.22659235 0.07721603 0.19278497 0.07440042 0.3421407 -0.41012046 -0.16313669 -0.092383936 -0.38391224 -0.025700592 -0.10983957 -0.410561 -0.52442217 -0.071480155 0.0079037715 0.35591316
411 0.115814865 -0.06203555 0.30962777 0.037029073 0.062375426 -0.32536206 -0.4562255 -0.27519906 -0.026874585 -0.08376671 0.51306474 0.09932394 0.004393012 -0.054117 -0.002395205 -0.3309731 -0.54070646 0.17797768 0.116496235 0.007958632 0.19338441 0.3903902 -0.0011680516 -0.7253713 -0.35623357 -0.35607237 -0.44616166 0.045768984 -0.10029883 -0.11245582 0.3727455 -0.44804314 -0.33006898 -0.24360746 -0.1874863 0.014719339 0.13965765 -0.15275337 0.19422485 0.10458561 0.34748876 -0.18821295 0.008845666 -0.13907519 0.36101028 -0.11060098 0.15663147 -0.48435438 -0.3687144 0.14979316 -0.3555785 -0.2496844 -0.099922195 0.30803892 -0.40139848 0.30287853 0.16992286 -0.08367572 -0.46218726 0.2858797 -0.34933442 -0.006315181 0.007939983 -0.12634172
357 0.59818876 -0.17523685 0.26236936 0.15124977 0.49082518 -0.06250561 0.2776257 -0.32474792 -0.4581229 -0.04986511 -0.0873638 0.31866378 -0.30970323 -0.24715847 0.3259218 0.5732013 0.28323227 -0.30796304 0.33514354 0.5133046 0.37298232 0.5367148 0.16272213 -0.48324102 0.11386413 0.044313293 -0.13730983 0.22974762 0.29841965 0.005753557 0.16327901 -0.29521725 0.10905363 -0.047956776 0.17837934 0.23453341 0.57383525 0.20708865 0.24988902 0.014818672 0.2920964 0.15980986 -0.024064185 -0.12600617 0.29467198 0.055065043 0.13859108 -0.3403594 0.34079298 0.07050817 0.1286863 0.48209986 -0.13847676 0.16003029 0.0041533816 -0.367093 0.5515469 -0.24008743 -0.679623 0.24998553 -0.018239986 -0.26515538 -0.47432163 0.076961555
180 0.46549878 -0.3171379 0.109308206 0.30752513 0.17258306 0.17408979 0.024025954 0.02822929 -0.26521716 0.0973533 0.51881975 -0.60079163 -0.21987486 -0.29228246 0.28085825 0.14253269 -0.31989706 -0.43044677 0.033833962 0.15815416 -0.28370088 0.30834404 -0.54168767 -0.3440604 -0.08241472 0.16353276 0.42601976 -0.67038083 0.09300784 -0.32928059 -0.118399486 -0.08652781 0.107270025 -0.13955186 -0.3762608 -0.1985632 0.10302966 0.06759626 0.13596067 -0.047136743 -0.49019977 0.24009408 -0.26322612 0.059392136 -0.20416418 -0.17083125 0.10461105 -0.39013833 0.20481004 0.38742667 -0.18308266 0.30556715 -0.4218542 0.10708038 0.43186206 -0.10795734 -0.100969635 -0.06246109 -0.52428794 0.2826826 -0.25486836 0.22340412 0.32427022 -0.20447807
